tree
version=v4
num_class=1
num_tree_per_iteration=1
label_index=0
max_feature_idx=179
objective=binary sigmoid:1
feature_names=Column_0 Column_1 Column_2 Column_3 Column_4 Column_5 Column_6 Column_7 Column_8 Column_9 Column_10 Column_11 Column_12 Column_13 Column_14 Column_15 Column_16 Column_17 Column_18 Column_19 Column_20 Column_21 Column_22 Column_23 Column_24 Column_25 Column_26 Column_27 Column_28 Column_29 Column_30 Column_31 Column_32 Column_33 Column_34 Column_35 Column_36 Column_37 Column_38 Column_39 Column_40 Column_41 Column_42 Column_43 Column_44 Column_45 Column_46 Column_47 Column_48 Column_49 Column_50 Column_51 Column_52 Column_53 Column_54 Column_55 Column_56 Column_57 Column_58 Column_59 Column_60 Column_61 Column_62 Column_63 Column_64 Column_65 Column_66 Column_67 Column_68 Column_69 Column_70 Column_71 Column_72 Column_73 Column_74 Column_75 Column_76 Column_77 Column_78 Column_79 Column_80 Column_81 Column_82 Column_83 Column_84 Column_85 Column_86 Column_87 Column_88 Column_89 Column_90 Column_91 Column_92 Column_93 Column_94 Column_95 Column_96 Column_97 Column_98 Column_99 Column_100 Column_101 Column_102 Column_103 Column_104 Column_105 Column_106 Column_107 Column_108 Column_109 Column_110 Column_111 Column_112 Column_113 Column_114 Column_115 Column_116 Column_117 Column_118 Column_119 Column_120 Column_121 Column_122 Column_123 Column_124 Column_125 Column_126 Column_127 Column_128 Column_129 Column_130 Column_131 Column_132 Column_133 Column_134 Column_135 Column_136 Column_137 Column_138 Column_139 Column_140 Column_141 Column_142 Column_143 Column_144 Column_145 Column_146 Column_147 Column_148 Column_149 Column_150 Column_151 Column_152 Column_153 Column_154 Column_155 Column_156 Column_157 Column_158 Column_159 Column_160 Column_161 Column_162 Column_163 Column_164 Column_165 Column_166 Column_167 Column_168 Column_169 Column_170 Column_171 Column_172 Column_173 Column_174 Column_175 Column_176 Column_177 Column_178 Column_179
feature_infos=[-0.511039137840271:1.9836734533309937] [-0.52790695428848267:2.0061602592468262] [-0.56699031591415405:2.0186722278594971] [0:0.89315533638000488] [0:0.63105207681655884] [0:0.44531714916229248] [-0.69735294580459595:1.8023428916931152] [-0.27500000596046448:0.32307693362236023] [0:0.34999999403953552] [-0.01976284570991993:0.17409326136112213] [-0.02857142873108387:0.25482866168022156] [-0.99889010190963745:0.99800401926040649] [0:32218.8125] [0:52951] [-4727920132096:15073899708416] [-132813616:200974400] [-947330809856:3077074321408] [0:44500] [-3.4028234663852886e+38:51] [-156796800:29806900] [-462169014272:834489221120] [0:57.744754791259766] [0:100] [-4.3411388397216797:3.6002633571624756] [0:15] [0:3] [0:4] [0:1] [0:1] [0.0099999997764825821:1] [0:1] [0:1] [0:1] [0:1] [0:1] [-9.9780483245849609:9.9780483245849609] [-15031164993536:15046908313600] [-14986665525248:15032334155776] [-4727920132096:15073899708416] [-4727920132096:15073899708416] [-4727920132096:15073899708416] [-1.795878529548645:1.4162410497665405] [-1.994681715965271:1.991702675819397] [-0.99889010190963745:0.99800401926040649] [-0.99889010190963745:0.99800401926040649] [-0.99889010190963745:0.99800401926040649] [-100:79.999992370605469] [-100:81.355926513671875] [-2.9468488693237305:1.7687153816223145] [-5.2759394645690918:3.5801706314086914] [-0.50017356872558594:1.9608839750289917] [-0.66203588247299194:1.9279098510742188] [-0.46385845541954041:1.8783084154129028] [-1.6432069540023804:3.7499947547912598] [-2.8569235801696777:4.4675388336181641] [-1511381270528:285639180288] [-0.99875158071517944:0.99009901285171509] [0:0.88268548250198364] [0:1] [0:1.9836734533309937] [-1:1] [0:0.79956656694412231] [0:1] [0:1] [0:1] [0:1] [0:1] [0:1] [0:1] [0:1] [0:0.59899622201919556] [0:1] [0:1] [0:1] [0:1] [0:1] [0:1] [0:1] [0:1] [0:1] [-0.13341346383094788:0.37151810526847839] [0:0.43572404980659485] [0:1] [0:1] [0:1] [0:1] [0:1] [0:1] [0:1] [0:1] [0:1] [0:2.0061602592468262] [-1:1] [0:0.80966997146606445] [0:1] [0:1] [0:1] [0:1] [0:1] [0:1] [0:1] [-0.15479116141796112:0.39698493480682373] [0:1] [0:1] [0:1] [0:1] [0:1] [0:1] [0:1] [0:1] [0:1] [-0.15479116141796112:0.39698493480682373] [0:0.43990638852119446] [0:1] [0:1] [0:1] [0:1] [0:1] [0:1] [0:1] [0:1] [0:1] [0:2.0020534992218018] [-1:1] [0:0.80932563543319702] [0:1] [0:1] [0:1] [0:1] [0:1] [0:1] [0:1] [0:0.60579860210418701] [0:1] [0:1] [0:1] [0:1] [0:1] [0:1] [0:1] [0:1] [0:1] [-0.18192628026008606:0.40201005339622498] [0:0.43825113773345947] [0:1] [0:1] [0:1] [0:1] [0:1] [0:1] [0:1] [0:1] [0:2.0186722278594971] [-1:1] [0:1] [0:1] [0:1] [0:1] [0:1] [0:1] [0:1] [0:1] [0:1] [0:1] [0:1] [0:1] [0:1] [0:1] [0:1] [0:1] [-0.22521865367889404:0.38894471526145935] [0:0.45993494987487793] [0:1] [0:1] [0:1] [0:1] [0:1] [0:1] [0:1] [0:1]
tree_sizes=6843 7091 7092 7116 7129 7142 7073 7097 7096 7106 7096 7100 7124 7102 7103 7116 7123 7139 7097 7100 7136 7071 7078 7118 7101 7100 7097 7125 7107 7082 7088 7087 7100 7095 7100 7055 7080 7098 7075 7098 7110 7078 7096 7119 7094 7112 7133 7103 7119 7130 7113 7106 7098 7093 7116 7123 7103 7082 7104 7089 7129 7102 7109 7126 7074 7108 7132 7137 7123 7100 7090 7117 7098 7146 7114 7111 7108 7093 7103 7116 7106 7114 7119 7095 7112 7108 7103 7083 7141 7080 7121 7114 7101 7068 7142 7097 7114 7106 7121 7152

Tree=0
num_leaves=63
num_cat=0
split_feature=80 13 30 81 24 113 29 16 174 70 118 13 70 18 171 39 38 24 162 4 174 115 101 116 70 172 112 6 81 18 171 171 23 39 18 21 24 6 49 6 165 25 112 24 143 169 21 171 43 18 121 164 81 25 24 4 24 171 6 176 118 45
split_gain=648.444 509.745 254.976 258.343 244.782 239.128 200.184 168.655 163.772 190.963 158.708 145.523 137.852 128.9 115.926 112.346 103.276 117.259 200.379 100.224 116.005 171.662 96.4714 94.2887 85.7261 84.6991 84.3432 92.1501 91.7475 85.7899 84.0064 111.386 81.1583 78.5253 78.0237 77.3577 106.461 81.6376 75.0938 74.0867 73.6045 73.2917 77.8437 71.1988 81.0242 72.7001 72.6674 68.4932 66.1088 64.9367 64.6644 64.0543 62.5015 81.9511 61.4604 59.6588 58.8146 81.9679 57.6392 57.74 57.1913 56.4699
threshold=-0.024113775230944153 3247.5000000000005 0.015268065501004459 0.019990089349448684 12.500000000000002 0.64495798945426952 0.95938983559608471 -3163461759.9999995 1.0000000180025095e-35 0.11809753626585008 0.57518798112869274 1250.5000000000002 0.078123364597558989 0.99999991059303295 0.075457572937011733 23108750.000000004 8504615168.000001 9.5000000000000018 0.5634920895099641 0.010465667117387058 0.057189542800188072 0.060661764815449722 0.0098313153721392172 0.095454547554254546 0.042956175282597549 0.23303167521953586 0.060795156285166747 0.032483598217368133 0.07075186446309091 0.99998834729194652 0.18247903138399127 0.10695847123861314 -0.12067942693829535 -342226495.99999994 0.99999931454658519 7.283923696377316e-05 9.5000000000000018 -0.077186711132526384 0.088832747191190733 -0.19412460178136823 0.15476191043853763 1.5000000000000002 0.073676519095897688 11.500000000000002 0.043604485690593726 0.21111111342906955 4.2370762457721873e-05 0.042492032051086433 -3.4753347790683613e-05 0.99999973177909862 0.24264705926179889 1.0000000180025095e-35 0.056600142270326621 1.5000000000000002 10.500000000000002 0.031687218695878989 7.5000000000000009 0.070816852152347579 0.14691210538148883 0.14642857760190967 0.44722221791744238 9.7030926553998156e-05
decision_type=2 2 2 2 2 2 2 2 2 2 2 2 2 2 2 2 2 2 2 2 2 2 2 2 2 2 2 2 2 2 2 2 2 2 2 2 2 2 2 2 2 2 2 2 2 2 2 2 2 2 2 2 2 2 2 2 2 2 2 2 2 2
left_child=8 2 13 15 5 10 7 38 -1 -10 12 25 19 41 60 33 17 18 26 24 35 -22 32 -19 -3 -9 56 29 -29 -28 31 48 -23 -4 -34 -21 37 -37 -5 -31 58 -2 -43 45 -45 46 54 -42 -15 -12 -33 -49 -20 -54 -7 -53 57 -13 59 -27 -6 -25
right_child=1 4 3 6 14 43 -8 11 9 -11 49 16 -14 30 -16 -17 -18 23 52 20 21 22 -24 61 -26 40 27 28 -30 39 -32 50 34 -35 -36 36 -38 -39 -40 -41 47 42 -44 44 -46 -47 -48 51 -50 -51 -52 55 53 -55 -56 -57 -58 -59 -60 -61 -62 -63
leaf_value=0.096643160775704298 0.10937136608069002 0.11326682492958964 0.095628556360717487 0.10134692412860216 0.085586546536455879 0.11617393712161915 0.093565627079692473 0.0891316475126811 0.12421016038452734 0.092536881798998896 0.11160029041599739 0.10190890171007529 0.11685543159622344 0.10185677210054785 0.10447071625936274 0.090603737355899966 0.099457875564970405 0.1010060286214884 0.11441313271108891 0.10426627630418246 0.11639122575648787 0.088967581594136244 0.09460768953857325 0.10573539505448697 0.081271087472542552 0.093399148992442976 0.077944546184204891 0.10071098720582559 0.080965526944162591 0.090506597660671304 0.083556058387064008 0.10347447318130788 0.094076813140671053 0.10444087195659343 0.11512030534689834 0.11140887434017369 0.10466563079728188 0.085783920882025536 0.094612964863325516 0.10844500273587092 0.096537902534566955 0.10193599715917805 0.094250244866304095 0.092569854972629886 0.12788415488370206 0.10124451924575088 0.10214559680342951 0.10234069345754385 0.093411465513798822 0.086218812382313686 0.089681929974846128 0.10835843857434137 0.11558534656493502 0.10059134701363899 0.10091587476690059 0.10088997282582632 0.11814746805120238 0.11255746416428518 0.10683948625649228 0.10072476711477767 0.10377226900048443 0.1150752794358986
leaf_weight=118.57644379138947 405.47615402936935 849.31358323991299 892.70494341850281 3157.2064580023289 343.03411690890789 1433.7067062556744 810.32189559936523 182.91273495554924 864.44706404209137 81.96999192237854 47.8392623513937 666.80341508984566 483.30156761407852 439.84054887294769 369.65910869836807 841.3371639251709 875.96115553379059 1991.2040602862835 1945.1096711158752 2976.7516465187073 729.57062719762325 72.712850287556648 322.73435759544373 2174.3318299949169 32.860622733831406 543.97572280466557 43.220723301172256 248.41187703609467 150.59304165840149 103.20188891887665 196.73641490936279 1125.3252766728401 83.950520500540733 735.9710633456707 391.73205897212029 57.188952535390854 374.46133068203926 322.8050030618906 837.84965896606445 730.75871607661247 424.53944402933121 2607.0648597329855 659.59483772516251 28.086647778749466 215.69717046618462 212.23689499497414 195.37953670322895 2191.2354255914688 2423.8576445877552 216.74644485116005 152.45901840925217 2220.6810131669044 251.40697264671326 341.03445029258728 112.77812974154949 527.62437817454338 202.73758861422539 507.07225841283798 461.33915233612061 2058.0041915625334 85.779034093022346 292.57748508453369
leaf_count=242 796 1980 2147 6899 796 2881 1782 349 1516 165 120 1467 916 973 799 2022 1893 4355 3956 6412 1466 140 670 4612 75 1082 90 505 323 186 372 2207 174 1754 780 128 891 744 1830 1476 985 5652 1354 58 391 411 428 4866 5334 555 284 4817 483 707 235 1075 435 1045 926 4432 195 606
internal_value=0.103263 0.102893 0.10174 0.102688 0.106877 0.107803 0.103324 0.103666 0.11867 0.121444 0.105986 0.104447 0.106588 0.0986145 0.0962715 0.0965326 0.106024 0.106622 0.108665 0.105784 0.104749 0.109249 0.103256 0.104241 0.112021 0.102519 0.104818 0.101118 0.0931745 0.104741 0.0962806 0.0968954 0.108351 0.0996095 0.111373 0.102817 0.0971052 0.0896758 0.09993 0.106194 0.102813 0.101375 0.100378 0.113552 0.123737 0.11226 0.113606 0.104225 0.0947054 0.0908554 0.101813 0.104889 0.11268 0.106968 0.115056 0.106922 0.108249 0.106513 0.100341 0.0991852 0.0892205 0.106853
internal_weight=45443.8 44378.8 34420.5 26410.1 9958.33 9159.85 23940.1 23129.8 1064.99 946.417 6961.97 19134.7 6697.38 8010.35 798.472 2470.01 10524.4 9648.46 5190.35 6214.08 5331.91 1600.7 871.13 4458.11 882.174 8610.31 2652.8 1276.19 399.005 877.181 4338.22 4141.48 548.395 1628.68 475.683 3731.21 754.455 379.994 3995.06 833.961 8427.4 3672.14 3266.66 2197.89 243.784 1954.1 1741.86 5364.08 2863.7 264.586 1277.78 4939.54 2537.55 592.441 1546.48 2748.31 1376.61 1173.88 3063.32 2601.98 428.813 2466.91
internal_count=97245 95322 74077 57105 21245 19455 51182 49400 1923 1681 15051 40671 14376 16972 1790 5923 22139 20246 10673 13460 11405 3230 1764 9573 2055 18532 5527 2580 828 1752 9170 8798 1094 3901 954 8175 1763 872 8729 1662 18183 7802 7006 4404 449 3955 3544 11743 6307 675 2491 10758 5146 1190 3116 5892 2947 2512 6440 5514 991 5218
is_linear=0
shrinkage=1


Tree=1
num_leaves=63
num_cat=0
split_feature=80 13 17 24 113 40 37 70 135 118 70 111 170 80 111 24 143 170 80 18 77 24 111 170 24 170 170 18 112 84 21 21 21 24 18 143 18 170 80 24 84 14 18 85 111 18 111 73 83 24 111 18 147 24 170 13 111 170 18 17 170 143
split_gain=623.314 489.63 264.821 235.13 229.9 223.817 175.014 157.076 173.285 152.395 132.563 154.742 121.604 120.746 120.638 298.967 241.471 172.999 121.771 118.261 102.599 97.552 110.2 96.0953 95.1033 137.19 112.198 92.2402 156.976 89.4441 87.8101 86.5016 83.1415 80.9708 134.039 80.3041 79.5155 78.3122 77.4506 90.1902 85.9228 75.653 74.2589 72.621 86.7961 75.4981 108.23 101.577 72.47 82.405 74.9357 71.0008 70.6392 71.8596 136.927 70.5916 82.1064 113.15 79.8332 75.1227 70.3015 69.4756
threshold=-0.024113775230944153 3247.5000000000005 0.41157142817974096 12.500000000000002 0.64495798945426952 -5232617471.999999 -18069770239.999996 0.13468296080827716 1.0000000180025095e-35 0.57518798112869274 0.078123364597558989 -0.0054977315012365571 1.0000000180025095e-35 -0.016915683634579178 -0.0011492249905131755 9.5000000000000018 0.057254889979958541 0.066509135067462935 0.0059612293262034663 0.99999991059303295 0.10555555671453477 5.5000000000000009 0.047903420403599746 -0.0080363205634057504 10.500000000000002 0.014797379728406669 -0.033481918275356286 0.99999991059303295 0.03151011839509011 1.0000000180025095e-35 9.9400651379255591e-05 0.055914754047989852 0.0008995463140308858 3.5000000000000004 0.99999973177909862 0.11762918159365655 0.14571563154459002 -0.0030152357649058099 0.0018443984445184471 6.5000000000000009 0.095454547554254546 2814235008.0000005 0.99998924136161815 0.21825397014617923 0.018364991992712024 0.99999985098838817 0.010375679470598699 0.18333333730697635 0.48684211075305944 6.5000000000000009 0.031845757737755782 0.99999991059303295 0.31009615957736975 11.500000000000002 0.046852454543113715 1403.5000000000002 0.0061916825361549863 0.0049648883286863574 0.99999943375587474 3.0814742785878486e-05 0.041478442028164871 0.043604485690593726
decision_type=2 2 2 2 2 2 2 2 2 2 2 2 2 2 2 2 2 2 2 2 2 2 2 2 2 2 2 2 2 2 2 2 2 2 2 2 2 2 2 2 2 2 2 2 2 2 2 2 2 2 2 2 2 2 2 2 2 2 2 2 2 2
left_child=7 2 5 4 9 51 -7 8 -1 10 11 13 -13 -3 18 16 20 21 24 -19 -16 33 29 -5 35 26 -26 28 -28 -23 -25 -4 -10 -18 -35 -8 -15 -22 39 40 -38 -14 -37 45 -45 -17 47 60 49 -31 -51 -2 53 54 -6 56 -39 -58 -57 -60 -47 -55
right_child=1 3 31 23 52 6 14 -9 32 -11 -12 12 41 36 15 43 17 19 -20 -21 37 22 -24 30 25 -27 27 -29 -30 48 -32 -33 -34 34 -36 42 38 55 -40 -41 -42 -43 -44 44 -46 46 -48 -49 -50 50 -52 -53 -54 61 -56 58 57 -59 59 -61 -62 -63
leaf_value=-0.0079570483267798735 -0.0025741104035377806 0.013441244808682775 -0.0067637704498162768 0.0062748283184148306 0.011936085736933397 -0.0056372713191099955 -0.0019186086144278988 -0.018729419839649455 0.0209955466111039 -0.012258831268577996 0.013225903247524651 0.0096021303649762666 0.0037627194555323691 0.012975767645867609 -0.007372790740468739 -0.00033592574324919173 0.0048957427811051049 0.0031718789660259029 -0.010056053174222191 -0.020457038020556026 0.013789881165600162 0.013753687759492778 -0.023664722368619395 -0.0051257844535598715 0.014033449631597051 0.017205614022659906 -0.010265300732203999 -0.0055469709169827727 0.0072688741129211479 0.014051294514227451 -0.020901077448137375 -0.020062322602561206 -0.0043659891231204329 -0.033124561262196352 0.0034343051357498774 -0.035235777102653569 -0.01843866475827018 0.0026507398165739131 -0.017533567543998239 0.0011327769401182105 0.0015702592526280971 -0.0030996172763227119 -0.0079583826117472917 0.018558034060694499 -0.012721566534447171 -0.0032329162629543473 -0.0086546705211946306 0.01657629624251333 -0.00057121608081000998 0.0055713887862083424 -0.021361676493838543 -0.0072538750706435621 -0.0097907232564576029 -0.0088449066541985664 -0.0016644526752278971 0.012735970508934555 -0.031218493948664289 -0.0051225528326919187 0.012864882830202819 -0.0024552577078992854 0.019819854725466206 0.024748957590975444
leaf_weight=100.93960329890251 2606.7780279815197 144.96383285522461 2228.1136272996664 170.73843455314636 1523.3110604286194 2308.766082406044 4286.2135448753834 50.716675639152527 858.44642853736877 264.74071496725082 482.94323766231537 1180.1740599572659 2872.0153836905956 82.186361417174339 761.76986184716225 3843.2564680576324 2701.4201325178146 176.59784829616547 669.7618493437767 159.43063354492188 176.29870212078094 1239.2427902519703 38.066115140914917 413.52877932786942 220.93623447418213 215.30153293907642 267.95576404035091 929.08437377214432 835.53933706879616 623.10163936018944 214.47023868560791 213.66252888739109 53.950866132974625 58.789868474006653 116.09215354919434 42.171346783638 254.10406948626041 486.84086337685585 227.71206924319267 498.71943575143814 128.04038938879967 825.28161203861237 449.46112978458405 134.84933844208717 46.040783852338791 1723.8243425488472 1408.4957962036133 116.65133568644524 418.53777462244034 486.28302574157715 43.03646719455719 2592.2781647741795 68.197566390037537 26.508413702249527 366.14020970463753 282.19265285134315 73.639739751815796 561.34728047251701 155.89431749284267 672.77904118597507 52.481335282325745 212.48100328445435
leaf_count=207 5577 269 5022 364 3088 5027 9063 106 1514 675 916 2507 6306 183 1804 8527 5499 338 1404 311 365 2452 75 901 395 431 623 2034 1771 1196 525 504 96 149 235 93 570 1124 481 1056 264 1824 866 265 96 3811 2969 240 828 1045 93 5755 143 55 732 624 176 1277 365 1537 111 386
internal_value=-0.000105624 -0.000468717 -0.0015986 0.00343687 0.00434514 -0.00111348 -0.000375995 0.0150062 0.0167347 0.00256275 0.00315291 0.00236524 0.00401709 -0.00366044 0.00012061 0.00109169 0.00348559 0.00582473 -0.00190963 -0.00807999 -0.00098496 0.0066443 0.0092687 -0.00695556 -0.00115355 0.00203173 0.000566049 -0.000908527 0.00299612 0.0097334 -0.0105689 -0.00794461 0.0194836 0.00403947 -0.00906802 -0.00280047 -0.00576562 0.00103777 -0.00718036 -0.00446544 -0.0117491 0.00222901 -0.0104413 -0.00192456 0.0105151 -0.00224302 -0.00446033 -0.00133151 0.006546 0.00913087 0.00330039 -0.00491009 0.00998398 0.0106286 0.00929928 1.74089e-05 -0.00351639 -0.00824478 0.00358953 0.000446736 -0.00252745 0.0209557
internal_weight=45443.3 44379.2 34423 9956.26 9157.52 31981.2 26782.2 1064.05 1013.34 6960.88 6696.14 6213.2 4877.47 1335.73 24473.4 16557 9231.36 6060.6 7916.43 336.028 3170.76 5724.57 2848.27 798.737 7246.66 2468.82 2253.52 2032.58 1103.5 2810.2 627.999 2441.78 912.397 2876.3 174.882 4777.85 1190.76 2408.99 1108.58 880.864 382.144 3697.3 491.632 7325.6 180.89 7144.71 3301.45 1892.96 1570.96 1152.42 529.319 5199.06 2196.64 2128.44 1889.45 2232.69 1121.83 634.987 1110.87 828.673 1776.31 238.989
internal_count=97245 95322 74077 21245 19455 68551 57219 1923 1817 15051 14376 13460 10637 2823 52192 35512 19493 12221 16680 649 7272 11572 5689 1790 15276 5254 4823 4428 2394 5614 1426 5526 1610 5883 384 10022 2554 5468 2371 1890 834 8130 959 16019 361 15658 7131 4162 3162 2334 1138 11332 4404 4261 3820 5103 2577 1453 2526 1902 3922 441
is_linear=0
shrinkage=0.02


Tree=2
num_leaves=63
num_cat=0
split_feature=80 13 142 132 30 16 16 171 5 171 25 13 5 39 13 151 24 142 81 101 116 39 104 22 80 142 80 150 142 170 170 5 21 5 80 170 171 58 132 24 171 93 12 24 24 3 107 106 48 24 24 171 24 170 101 22 30 40 144 170 25 112
split_gain=599.199 470.467 268.328 261.11 312.451 181.83 176.88 149.648 172.503 149.362 248.503 148.964 124.192 121.972 109.138 102.955 100.547 216.549 162.698 105.739 96.9032 94.5787 91.8681 88.2961 84.5276 76.9753 80.5339 75.0954 72.9996 72.9825 114.347 73.0628 72.5366 72.2213 73.4363 70.2465 69.0143 67.9108 67.5265 66.9476 66.5231 63.3257 62.7152 64.2614 81.1044 61.3332 60.806 59.8647 59.0594 58.6559 84.1939 153.287 99.2568 82.7076 78.0726 78.635 68.8955 58.1358 58.0445 64.2069 57.4865 75.7571
threshold=-0.024113775230944153 3546.5000000000005 0.019994993694126609 0.027087192051112655 0.031830463558435447 16998874112.000002 -3163461759.9999995 0.028224288485944275 0.056404015049338348 0.080470807850360884 2.5000000000000004 1250.5000000000002 0.018484554253518585 23108750.000000004 1994.5000000000002 1.0000000180025095e-35 9.5000000000000018 0.0090154185891151446 0.056600142270326621 0.015620560850948097 0.095454547554254546 -390234991.99999994 0.13392857462167743 35.170297622680671 -0.01537748286500573 0.024217702448368076 -0.004133642651140689 0.15192308276891711 0.021525492891669277 0.023831796832382682 0.058804802596569068 0.047261662781238563 8.5487034084508209e-05 0.040640743449330337 0.0089152771979570406 -0.019436669535934922 0.09545531123876573 1.0000000180025095e-35 0.15076224505901339 6.5000000000000009 0.048449417576193816 0.061458395794034011 0.69186916947364818 9.5000000000000018 2.5000000000000004 0.0053762744646519431 0.38750000298023229 0.18333333730697635 0.013659866061061622 6.5000000000000009 11.500000000000002 0.072669759392738356 10.500000000000002 0.035649606958031661 0.022641458548605446 69.378856658935561 0.031830463558435447 -6735106047.999999 0.59411767125129711 0.066509135067462935 1.5000000000000002 0.075679685920476927
decision_type=2 2 2 2 2 2 2 2 2 2 2 2 2 2 2 2 2 2 2 2 2 2 2 2 2 2 2 2 2 2 2 2 2 2 2 2 2 2 2 2 2 2 2 2 2 2 2 2 2 2 2 2 2 2 2 2 2 2 2 2 2 2
left_child=7 3 9 13 14 6 29 -1 37 10 32 35 15 21 42 46 17 18 23 -20 -18 -2 27 39 -11 26 -7 -16 41 -6 31 36 -3 34 -14 -8 -31 -9 -10 -13 -34 -22 -5 44 -44 -37 -12 -43 -47 53 52 -52 -51 -4 55 -55 -56 -19 -59 -60 -29 -62
right_child=1 2 49 4 5 25 11 8 38 24 12 16 33 -15 22 -17 20 57 19 -21 28 -23 -24 -25 -26 -27 -28 60 -30 30 -32 -33 40 -35 -36 45 -38 -39 -40 -41 -42 47 43 -45 -46 48 -48 -49 -50 50 51 -53 -54 54 56 -57 -58 58 59 -61 61 -63
leaf_value=-0.0061488094914480011 -0.0082573768271437618 -0.0034922843211639132 0.021777928916306998 -0.0040349381418216344 -0.0046783591012827062 0.0031298364666988831 -0.0068138943418412368 0.022576927596549941 0.0050802976092686625 0.018244800474223766 0.01838350650580222 -0.0083410828504579659 -0.0010530416698336909 -0.012470984868328405 -0.0049984488912309753 -0.0012964938667982073 -0.0022386086492798742 -0.0041359693888364116 -0.0031536636901444708 -0.021374583572577724 0.0026061120642490334 0.00044913266683318257 0.0053282313514195498 0.0057894406177721536 0.004244226417704563 0.0039614717469400561 -0.015561392506701792 0.0082259910050715267 -0.0058909386170204227 0.00070909578845370995 -0.012847544981433163 -0.016826206256487019 -0.0014180738734931584 0.021276179377341699 -0.019693447134223024 -0.0075729904482277136 0.01216500160312965 0.0083676895056168567 -0.03356855260591507 0.0075976301233540476 -0.016655578532027263 0.016088490075894583 -0.012293202479477815 -0.014484831318347356 -0.001519619941811534 0.001616117572781395 0.0067235563299367033 0.0037085511291588503 -0.0022693285541916866 0.007592555912451439 -0.014689202909727002 0.023438567564405443 -0.0080746890529768637 0.0040831196232730526 0.0040761208517850669 -0.031526024133587793 0.024069028413534012 0.005166234911490911 0.012184305254590464 -0.0050401986652392691 0.00067317315798600741 -0.011308823506146022
leaf_weight=120.46355354785919 1041.8996834754944 1280.1603570878506 332.66919070482254 1556.3612249493599 3133.0120502710342 110.77733421325684 673.61660099029541 701.66068363189697 38.342219889163971 183.91221237182617 382.54331628978252 358.90964061021805 457.95626819133759 1070.7034764289856 3344.348429441452 282.55319157242775 2242.7746554017067 134.79340517520905 593.62331715226173 160.71400040388107 1800.6774660646915 954.1211234331131 550.73036348819733 1730.1694739460945 2468.134895324707 141.85302805900574 519.44681987166405 290.74651695787907 300.70648121833801 480.93514853715897 187.14696168899536 59.440391480922699 163.50687949359417 44.981699526309967 101.81094926595688 411.17447635531425 373.18780827522278 171.41536861658096 31.066996335983276 146.76846528053284 388.55060508847237 316.40956583619118 527.72306418418884 662.29167211055756 594.90735790133476 4808.6168901920319 343.74271392822266 311.65370890498161 2316.762905985117 974.81693202257156 49.198613196611404 244.57263931632042 191.8009614944458 111.98367184400558 134.31134875118732 29.605383902788162 142.83569999039173 934.54191553592682 1726.5693591833115 89.647202551364899 1155.7225765734911 255.95002689957619
leaf_count=245 2473 2844 642 3340 6991 238 1343 1217 78 332 823 748 1005 2522 7202 679 4915 286 1195 325 3870 2238 1105 3700 5150 288 1206 571 629 1041 384 117 413 97 223 953 721 319 64 292 902 640 1094 1421 1221 10368 805 643 4995 2005 101 444 398 257 266 66 258 1929 3482 173 2431 522
internal_value=-0.000103594 -0.000459416 0.00383012 -0.00144791 -0.000928835 0.00025713 0.000574167 0.0147209 0.0174018 0.00166356 -0.0010815 0.00139581 0.0046371 -0.00702835 -0.00412133 0.00892751 0.00293393 0.0047049 0.000930407 -0.00708742 0.000839313 -0.00409733 -0.00241145 0.00364122 0.00522981 -0.00927816 -0.0122691 -0.00325866 0.00336965 -0.00312239 0.00130299 0.00422871 -0.00611956 -0.00251875 -0.00450933 -0.00063621 0.00573586 0.0198165 -0.0125963 -0.0036941 -0.0121702 0.00452198 -0.00698149 -0.00954119 -0.0066006 -8.18352e-05 0.0129038 0.00998259 0.000351939 0.00979457 0.0074351 0.0169769 0.00500357 0.0143433 0.0083522 -0.0036722 0.0144918 0.00861156 0.0092405 0.0113268 0.000158546 -0.00150958
internal_weight=45442 44379.1 8309.65 36069.4 33002.7 24063.9 23291.9 1062.95 942.485 6097.85 3445.81 19058.1 1613.59 3066.72 8938.78 1008.84 10848 5875.74 2990.18 754.337 4972.22 1996.02 5597.5 2235.85 2652.05 772.077 630.224 5046.77 2729.45 4233.72 1100.71 913.563 1832.22 604.749 559.767 8210.17 854.123 873.076 69.4092 505.678 552.057 2428.74 3341.28 1784.92 1122.63 7536.55 726.286 628.063 7125.38 2211.79 1460.39 293.771 1166.62 751.405 418.736 141.589 277.147 2885.55 2750.76 1816.22 1702.42 1411.67
internal_count=97245 95322 17710 77612 70379 51472 49740 1923 1678 13273 7791 40486 3632 7233 18907 2307 22827 12130 6260 1520 10697 4711 11831 4740 5482 1732 1444 10726 5782 9254 2263 1879 4159 1325 1228 17659 1762 1536 142 1040 1315 5153 7076 3736 2315 16316 1628 1283 15363 4437 2948 545 2403 1489 847 323 524 5870 5584 3655 3524 2953
is_linear=0
shrinkage=0.02


Tree=3
num_leaves=63
num_cat=0
split_feature=80 13 142 17 30 132 16 21 70 135 17 116 16 111 24 101 13 23 111 4 5 24 116 111 13 111 5 107 21 5 21 6 6 143 142 119 143 111 142 24 23 21 80 84 111 111 87 5 85 24 24 24 84 5 151 101 101 113 24 21 23 43
split_gain=576.133 453.674 303.148 250.7 279.395 250.894 164.972 161.718 146.909 161.625 124.29 111.803 102.033 112.04 223.613 182.197 167.822 99.5808 98.403 131.051 96.3967 95.2076 131.132 88.1647 87.4913 99.6051 90.1794 85.4324 85.3499 81.0182 79.8776 79.0108 76.4541 83.3063 76.2056 75.9958 75.0936 92.3791 80.8055 83.1569 74.6547 70.76 68.9552 67.618 67.2737 65.299 95.8739 76.6109 67.73 64.3799 118.69 112.762 73.3866 83.4843 70.0775 61.5518 76.7002 80.473 64.2338 68.2042 61.3227 60.1502
threshold=-0.024113775230944153 3247.5000000000005 0.019994993694126609 0.41157142817974096 0.017392619512975219 0.02626824472099543 -3163461759.9999995 8.5487034084508209e-05 0.13468296080827716 1.0000000180025095e-35 6.4663814555387958e-05 1.0000000180025095e-35 16998874112.000002 -0.0011492249905131755 9.5000000000000018 0.012866909615695478 1250.5000000000002 -0.050127737224102013 0.00034527810930740094 0.030652501620352272 0.010463367216289045 10.500000000000002 0.095454547554254546 -0.0068777978885918847 1994.5000000000002 0.042190313339233405 0.036632338538765914 0.31666667759418493 4.2370762457721873e-05 0.015588956419378521 0.0008995463140308858 0.029805589467287067 -0.097153387963771806 0.038449410349130637 0.00046878465218469506 0.095454547554254546 0.06059489585459233 0.0052787729073315868 0.045664520934224136 8.5000000000000018 0.4352568536996842 0.057045271620154388 0.0094649908132851141 0.17914438992738727 0.0059207687154412278 0.0086641963571310061 0.39444445073604589 0.016407698392868045 0.21825397014617923 11.500000000000002 12.500000000000002 6.5000000000000009 1.0000000180025095e-35 0.039366526529192931 0.18465909361839297 0.080182131379842772 0.029059855267405513 0.78174602985382091 5.5000000000000009 0.011380823794752361 -0.1664280295372009 8.8647990196477635e-05
decision_type=2 2 2 2 2 2 2 2 2 2 2 2 2 2 2 2 2 2 2 2 2 2 2 2 2 2 2 2 2 2 2 2 2 2 2 2 2 2 2 2 2 2 2 2 2 2 2 2 2 2 2 2 2 2 2 2 2 2 2 2 2 2
left_child=8 3 7 4 24 10 55 11 9 -1 -6 27 13 15 16 21 36 -13 19 23 -5 40 43 31 -2 26 -26 -3 -28 -20 -11 -19 -9 -34 -25 -4 37 -15 39 -38 60 44 -40 -23 -22 46 48 -47 -16 51 -51 52 -37 -54 -53 56 58 -58 -7 -60 -8 -62
right_child=1 2 35 20 5 6 12 32 -10 30 -12 17 -14 14 45 -17 -18 18 29 -21 41 22 -24 34 25 -27 28 -29 -30 -31 -32 -33 33 -35 -36 49 38 -39 42 -41 -42 -43 -44 -45 -46 47 -48 -49 -50 50 -52 54 53 -55 -56 -57 57 -59 59 -61 61 -63
leaf_value=-0.0077151566795721537 -0.0069711740018529259 0.0027237911041722018 -0.0054334750985406679 -0.017801033695184126 0.0017519550079301905 -0.0074582774860095478 -0.0066904773890432336 0.011135014537338851 -0.018161557011757014 0.020267977540590554 -0.0094936006717200525 -0.0017740827833337986 -0.0075499897456445166 0.0046522290268113473 0.0034445204134098927 -0.012373118846506661 0.0079824175130976931 -0.002407035432217959 0.015520360665121965 0.010684065587169089 -0.0022358461395483192 -0.0063000494599122579 0.0077315080212405733 0.0083531316686760431 -0.0033097681790947016 -0.018816623068318543 0.0014004768422775878 -0.007693731715533547 0.020358846629391008 0.0062550775758108482 -0.0045928294670862903 -0.019111348920128494 0.0027964475663937623 -0.0087872717367866136 -0.0054632026846373576 0.01881973745711283 0.0045526388021062264 -0.006878453159346324 -0.027450434499193974 0.021415273716559737 -0.013990513332438561 -0.017983106964651607 -0.0011771967818659794 0.018174331887184716 -0.010048910536600689 0.0043750857169292173 -0.0049684572184186234 -0.004185049780970204 0.023884147672053206 0.024301476692524759 -0.0038542398794092574 0.0066315128860381656 -0.00090027769405534044 0.019761327437438955 -0.0074544683993662134 -0.02845054786596193 0.0078143421325563983 -0.023748244779978941 -0.00045006883194915966 -0.011205277598500173 -0.0006946068893316918 0.0080779182349447459
leaf_weight=100.99372190237045 3072.5450385659933 617.34624701738358 133.00213427841663 326.7494204044342 525.08339729905128 1247.493674248457 577.19802048802376 110.6486428976059 50.76694118976593 856.02760514616966 1548.3478602170944 910.31310477852821 490.07744398713112 456.16836214065552 1837.4936205148697 481.05225682258606 3771.2150861024857 365.31302189826965 503.90667170286179 495.94648313522339 1252.787822842598 489.23414558172226 1255.7866687774658 429.61966939270496 3950.0893706083298 145.68963241577148 596.02163556218147 638.09290851652622 111.11249694228172 1524.1673740446568 53.906632274389267 162.97479617595673 325.14331164956093 1031.0522311925888 251.26587456464767 532.40550662577152 1426.5156743824482 703.77751100063324 46.100419580936432 125.80552360415459 178.85796827077866 182.55976271629333 236.97032541036606 47.62947341799736 680.94317710399628 516.75770246982574 602.33546555042267 2151.1390861272812 65.297732889652252 266.38479945063591 76.02833616733551 1085.999953687191 209.78235459327698 122.12190067768097 160.3084579706192 35.915077209472656 385.96301603317261 33.158329486846924 1924.9224426150322 266.87705954909325 2321.9540079534054 359.0824191570282
leaf_count=207 6505 1315 257 765 1253 2779 1153 237 106 1514 3664 1895 1080 1018 4001 1019 7791 809 1096 959 2770 1081 2621 952 8439 293 1194 1526 228 3162 96 354 792 2378 567 1041 2917 1606 96 248 394 424 471 91 1567 1120 1386 4631 129 480 160 2280 442 233 310 81 781 70 4136 658 4895 722
internal_value=-0.000101536 -0.000450248 0.00331027 -0.00153756 -0.00106547 2.85533e-06 0.000629111 0.00124042 0.0144436 0.01612 -0.0066446 0.00271864 0.00143111 0.00168156 0.0027835 -0.000621736 0.00517614 0.0041503 0.00559624 0.00204843 -0.00771038 0.000462832 0.00419732 -0.00150233 -0.00433547 -0.00264634 -0.0021316 -0.00257148 0.00443454 0.00857221 0.0187823 -0.00762046 -0.00469709 -0.00600691 0.00324703 0.00919875 0.00163871 -0.00233992 0.00415508 0.00594801 -0.00148508 -0.00613514 -0.00563399 -0.00405941 -0.00499682 -0.000346182 0.00197094 -0.00252333 0.0041728 0.00999791 0.0180485 0.00867395 0.014221 0.00676482 0.00480718 -0.00310449 -0.00285263 0.00520275 -0.00383799 -0.0017707 -0.000789072 0.000484081
internal_weight=45440.2 44378.5 9951.82 34426.7 31983.7 24108.2 22034.8 7365.79 1061.69 1010.93 2073.43 5898.95 18140.4 17650.4 11939.6 5710.79 6766.55 4643.51 3733.19 1705.12 2443.04 5229.74 1792.65 1209.17 7875.46 4802.91 4657.22 1255.44 707.134 2028.07 909.934 528.288 1466.84 1356.2 680.886 2586.03 2995.34 1159.95 1835.39 1552.32 3437.09 2116.29 283.071 536.864 1933.73 5173.02 2505.13 2667.9 1902.79 2453.03 342.413 2110.62 864.31 331.904 1246.31 3894.33 3858.41 419.121 3439.29 2191.8 3258.23 2681.04
internal_count=97245 95322 21245 74077 68551 51892 46975 16042 1923 1817 4917 12635 38470 37390 25414 11976 14147 9794 7899 3641 5526 10957 3793 2682 16659 10154 9861 2841 1422 4258 1610 1163 3407 3170 1519 5203 6356 2624 3732 3165 7164 4761 567 1172 4337 11267 5516 5751 4130 4946 640 4306 1716 675 2590 8505 8424 851 7573 4794 6770 5617
is_linear=0
shrinkage=0.02


Tree=4
num_leaves=63
num_cat=0
split_feature=80 13 142 17 30 132 174 16 25 174 70 4 18 17 21 170 111 61 38 111 24 101 13 6 5 5 132 24 23 18 171 171 112 170 111 4 84 119 101 18 21 111 89 170 25 170 48 171 70 111 111 25 112 170 21 89 24 24 24 24 170 17
split_gain=554 435.849 291.485 240.729 268.257 240.9 223.577 158.49 157.66 143.646 168.162 132.789 123.944 119.307 118.21 113.064 103.847 115.848 100.912 102.206 221.496 174.779 168.273 100.254 93.0496 92.4932 88.2251 85.5954 84.8019 84.2651 82.6707 106.188 82.5535 81.7537 85.0766 92.3618 82.4951 73.0864 70.8855 68.1131 67.9635 65.5002 73.1104 64.9807 93.9549 84.3235 75.7563 71.0932 98.7542 82.5821 64.9148 64.4571 75.5973 66.0727 75.4881 62.7694 64.4503 62.0578 114.401 108.554 90.9025 81.2514
threshold=-0.024113775230944153 3247.5000000000005 0.019994993694126609 0.41157142817974096 0.017392619512975219 0.02626824472099543 0.057189542800188072 -3163461759.9999995 2.5000000000000004 1.0000000180025095e-35 0.11809753626585008 0.017939047887921337 0.99999991059303295 6.4663814555387958e-05 8.5487034084508209e-05 0.069370102137327208 0.0010346822091378274 0.057446969673037536 16110968832.000002 -0.0011492249905131755 9.5000000000000018 0.012866909615695478 1012.5000000000001 -0.10004453733563422 0.040640743449330337 0.010463367216289045 0.087677504867315306 10.500000000000002 -0.077176779508590684 0.9999963939189912 0.10635701194405557 0.18247903138399127 0.051874659955501563 0.017572075128555301 -0.0051361548248678437 0.034588048234581954 0.20526316016912463 0.095454547554254546 0.0083174044266343134 0.10924486443400384 0.054916571825742728 0.0047725839540362367 0.15192308276891711 0.0081672742962837237 1.0000000180025095e-35 0.058804802596569068 0.033485291525721557 0.09545531123876573 0.084302943199872984 0.00010745192412286998 0.0059207687154412278 1.5000000000000002 0.074187316000461592 0.078366361558437361 5.8779434766620404e-05 1.0000000180025095e-35 11.500000000000002 11.500000000000002 12.500000000000002 6.5000000000000009 0.035115368664264686 6.4663814555387958e-05
decision_type=2 2 2 2 2 2 2 2 2 2 2 2 2 2 2 2 2 2 2 2 2 2 2 2 2 2 2 2 2 2 2 2 2 2 2 2 2 2 2 2 2 2 2 2 2 2 2 2 2 2 2 2 2 2 2 2 2 2 2 2 2 2
left_child=9 3 6 4 12 13 8 43 14 -1 -11 32 51 -6 55 30 17 26 19 21 22 27 -21 -16 -13 -5 -8 39 -18 -15 -14 -32 -10 34 35 -29 -37 -4 -28 -9 50 42 -22 46 -45 47 -7 49 -49 -46 -27 -2 -53 54 -54 -3 -57 59 -59 60 -39 -62
right_child=1 2 37 25 5 7 16 18 11 10 -12 24 15 29 23 -17 28 -19 -20 20 41 -23 -24 -25 -26 40 38 33 -30 -31 31 -33 -34 -35 -36 36 -38 57 -40 -41 -42 -43 -44 44 45 -47 -48 48 -50 -51 -52 52 53 -55 -56 56 -58 58 -60 -61 61 -63
leaf_value=-0.0064410112915258789 0.0059719184200425091 -0.0076773860086946687 -0.0053249262334530735 -0.017435569031292949 0.0017172143851152525 -0.003824895550460491 0.0038060147313557038 -0.012363668246092918 0.0092216620392002163 0.019395200232104951 -0.010322812075286137 -0.0046851926866814291 -0.0080554903615511451 0.0020753611801953105 0.015359094259081949 -0.027222040153312435 -0.0060544603207793044 0.011691431890002225 -0.0056187847662413507 0.00035803778423848813 0.0012814966154862917 -0.012043230710710496 0.0072941945776318828 -0.012362048560535528 0.019139574134104196 -0.002167051604331777 -0.00084111708885326324 0.0092057012607666671 0.013818873641830596 -0.011205701840333336 -1.6075507911939698e-05 -0.016609633968407301 -0.0029901070772742856 0.020718949238875576 -0.0034181961347961422 -0.010049937989997135 0.019593229362571768 0.021009685942669543 -0.01981141280204135 -0.00056080824954055422 -0.017508813828095594 -0.0018898409140012237 0.013679338427449275 -0.034852327386541967 0.011752766260353792 -0.012914625080671451 -0.014275034326238518 0.010508408144711998 -0.013754559263629781 -0.0033297042000190302 -0.0098442411846182947 -0.00094224126695420692 -0.012654170737350137 0.01356153263109181 0.012925252028948753 0.0026462978883125734 -0.0067427069193866564 0.023866993395797752 -0.0037787102871521929 0.0047124053391712148 0.02512139132510189 0.003872523392336887
leaf_weight=118.63695216178894 405.36023584008217 506.83550035953522 133.04194271564484 326.96654367446899 525.03801894187927 1507.479823589325 480.88228768110275 206.43422418832779 1116.9551216363907 859.62607944011688 82.017730116844177 873.52541166543961 2752.7155488431454 221.85363990068436 54.091831743717194 101.51651382446289 94.321810752153397 390.66852796077728 781.14928191900253 2008.5548560023308 1384.8540094196796 477.41457948088646 4618.9527809619904 768.43538472056389 68.771630108356476 1249.652531042695 168.33725522458553 876.19883832335472 824.17731443047523 1327.0948089957237 1234.9925742149353 174.25289058685303 274.36569333076477 109.38551291823387 549.88576692342758 202.05018073320389 43.917089819908142 395.07952415943146 147.02116580307484 3171.2511583566666 185.92732088267803 3489.6292934417725 218.78274542093277 29.417051494121552 164.87024295330048 183.10440826416016 339.43065977096558 483.88066428899765 75.848183631896973 1110.7940545082092 681.23742455244064 2573.4028468579054 538.48143514990807 47.583736419677734 48.607299834489822 1213.6666060090065 382.92459771037102 265.85145556926727 76.042742878198624 1245.927197188139 87.157200127840042 381.21979209780693
leaf_count=242 795 1202 257 765 1253 3364 998 431 2562 1516 165 1919 6060 512 120 199 180 742 1705 4277 3089 1010 9578 1818 141 2762 351 1858 1656 3152 2411 321 643 211 1228 391 80 767 313 6606 432 7551 455 67 368 374 776 947 151 2458 1567 5572 1098 98 105 2573 824 480 160 2590 164 785
internal_value=-9.95487e-05 -0.000441286 0.0032452 -0.00150689 -0.00104422 2.70229e-06 0.00121585 0.000616477 -0.000988585 0.0141732 0.0167845 0.00288629 -0.004248 -0.00651005 -0.00408029 -0.00655719 0.00672028 0.00280086 0.00140268 0.00171954 0.00278372 -0.000492824 0.00519341 -0.0104997 -0.00290401 -0.00755473 -0.0015751 0.000579581 0.0117638 -0.00930033 -0.00603914 -0.00209192 0.00680946 0.00412477 0.00301298 0.00616852 -0.00461941 0.00902163 -0.00976576 -0.00129036 -0.00601157 -0.000351842 0.00299051 -0.00304272 -0.000586071 -4.98108e-05 -0.00576107 0.00124442 0.00717402 -0.00136144 -0.00488517 -0.00152022 -0.00247134 -0.00864236 -0.010491 -0.00156052 0.000386129 0.00980601 0.0177167 0.00850623 0.0139522 0.00792712
internal_weight=45437.5 44377.3 9949.3 34428 31984.2 24107.3 7364.98 22033.3 5259.57 1060.28 941.644 2333.62 7876.91 2073.99 2925.95 4263.48 2105.41 1186.91 18138.5 17357.3 11720.8 5636.54 6627.51 822.527 942.297 2443.78 796.241 5159.12 918.499 1548.95 4161.96 1409.25 1391.32 1781.44 1672.05 1122.17 245.967 2584.32 315.358 3377.69 2116.82 5093.27 1603.64 3894.83 2047.91 2018.5 1846.91 1835.39 559.729 1275.66 1930.89 3613.44 3208.08 634.672 587.089 2103.43 1596.59 2451.28 341.894 2109.38 863.457 468.377
internal_count=97245 95322 21245 74077 68551 51892 16042 46975 11802 1923 1681 5265 16659 4917 6537 8991 4240 2404 38470 36765 24950 11815 13855 1938 2060 5526 1662 10805 1836 3664 8792 2732 3205 3768 3557 2329 471 5203 664 7037 4761 11095 3544 8505 4365 4298 4140 3924 1098 2826 4329 7668 6873 1301 1203 4599 3397 4946 640 4306 1716 949
is_linear=0
shrinkage=0.02


Tree=5
num_leaves=63
num_cat=0
split_feature=80 13 145 29 29 132 30 134 174 13 24 15 24 142 45 174 111 24 101 132 170 24 170 80 111 111 142 134 13 80 111 170 101 61 84 112 111 15 111 11 4 89 24 113 170 142 24 111 101 142 24 111 80 80 132 83 61 24 124 36 152 178
split_gain=595.005 395.225 215.62 213.893 202.207 188.07 217.013 161.794 157.062 127.984 117.709 116.289 113.648 223.259 113.054 110.769 108.515 253.836 122.986 100.259 99.5037 96.5606 82.5317 82.1773 84.2033 80.488 103.967 77.4499 85.3203 73.3004 86.3829 69.264 68.2572 67.2656 65.5855 64.1365 77.4597 73.692 63.7554 67.1063 62.4033 73.652 61.9798 69.8479 62.6561 61.3688 71.5753 64.6774 121.726 71.5974 70.1499 96.1493 72.5521 65.5198 65.1665 60.5048 58.6284 57.9191 57.5491 56.2686 56.2453 55.6888
threshold=-0.024113775230944153 3614.5000000000005 0.31009615957736975 0.92893216013908397 0.16232982277870181 0.027087192051112655 0.041885966435074813 0.5634920895099641 0.057189542800188072 1108.5000000000002 11.500000000000002 855.00000000000011 7.5000000000000009 0.0080835381522774714 9.4063139840727686e-05 1.0000000180025095e-35 -0.0011492249905131755 9.5000000000000018 0.010597871616482736 0.16175729781389239 0.0060547462198883304 13.500000000000002 0.0037295334041118626 0.023500401526689533 0.0010346822091378274 0.044473383575677879 0.01401893235743046 0.76388889551162731 2085.5000000000005 -0.01343477889895439 -0.012144983280450104 0.020865080878138546 0.033402750268578536 0.058016210794448859 1.0000000180025095e-35 0.048968447372317321 0.0091227539815008658 23396.500000000004 -0.0030481580179184671 4.6772962377872325e-05 0.020971886813640598 1.0000000180025095e-35 6.5000000000000009 0.28991597890853887 0.015200912021100523 -0.014003898948431013 9.5000000000000018 0.0052787729073315868 0.0028258471284061675 0.0044340267777442941 1.0000000180025095e-35 0.021112726069986824 0.0059612293262034663 0.0067226169630885133 0.033746512606740005 0.48684211075305944 0.062668785452842726 10.500000000000002 0.18810481578111651 -320709999.99999994 0.052091477438807494 0.051315790042281158
decision_type=2 2 2 2 2 2 2 2 2 2 2 2 2 2 2 2 2 2 2 2 2 2 2 2 2 2 2 2 2 2 2 2 2 2 2 2 2 2 2 2 2 2 2 2 2 2 2 2 2 2 2 2 2 2 2 2 2 2 2 2 2 2
left_child=7 3 21 4 25 11 34 -1 10 45 12 59 13 38 16 -9 18 -18 42 -17 -14 -3 -19 24 29 26 27 28 -2 -10 33 -25 -15 -31 -7 37 57 -24 -4 -40 41 55 -11 -44 -45 46 -8 49 -49 53 51 52 -50 56 -51 -22 -47 -37 -27 -6 -12 -5
right_child=1 2 8 61 5 6 9 15 23 14 60 -13 20 32 -16 19 17 22 -20 -21 40 -23 35 31 -26 58 -28 -29 -30 30 -32 -33 -34 -35 -36 36 -38 -39 39 -41 -42 -43 43 44 -46 47 -48 48 50 54 -52 -53 -54 -55 -56 -57 -58 -59 -60 -61 -62 -63
leaf_value=-0.0049185850574287463 -0.0084824053655181315 0.011000259793712098 -0.016318477753060827 -0.01153490441803543 -0.0078541957213637062 -0.00063264885347473639 -0.011325272949067445 -0.0072036499521723422 0.013726111808019812 -0.0031896559879781316 -0.013740525597049937 -0.011197807246514606 0.0085949660723505794 0.0033348740631632592 0.0077561559240545757 0.021642124928216572 0.0064742117191887343 0.0049419571471014797 -0.011123371374659595 -0.0052916778523329775 -0.015547961350615497 -0.025883807529567014 -0.003231277460191024 0.0092868751627956051 0.012795493849061286 -0.024860066001207555 0.00047687468703248382 0.0060053442475960141 -0.0020827139096366879 -0.017919902546248544 0.005374968274839128 -0.024973935513413238 0.022188017015365206 0.0059448514023963187 -0.0046565468859486323 -0.0061478726795990094 -0.0032423180613587767 -0.015190841619081274 -0.0076759912040755985 0.015563055343785806 -0.0047269866395089882 0.0063293008819177614 0.017911864473068174 0.00047820027378116015 0.013090895922753585 0.0020064000564737577 0.003180176450167104 -0.010108913653201683 0.017742637297116389 -0.0075040874898649971 -0.0015039427801697123 0.019488202483040354 -0.011383113068804558 -0.011268929093366069 0.0085594038340792017 0.0062269961414145782 -0.011729666287168211 0.0099079577276157457 0.0076917120483091196 0.00034570592743750128 -0.00031588782560001169 -0.004956791031096093
leaf_weight=142.80646833777428 2446.4755626618862 1538.8344085216522 346.76164811849594 720.78244146704674 478.54385426640511 3029.6597424149513 429.55888596177101 64.16913977265358 222.4901537001133 1200.1515003740788 333.12535586953163 886.85049396753311 1024.2737356126308 493.88396263122559 1502.038879275322 793.55292835831642 4299.1923165023327 748.72164264321327 417.24211436510086 58.28602346777916 126.57182902097702 26.916528195142746 820.26797240972519 38.385923534631729 799.94617322087288 117.26028156280518 1558.0912656486034 214.52942317724228 1268.3613257408142 140.61787360906601 458.39600211381912 55.227370828390121 89.302881002426147 68.995577394962311 3488.6775261461735 113.59673431515694 953.72026547789574 274.51095250248909 461.07683551311493 53.618161618709564 564.21323463320732 799.92147502303123 109.862260222435 1711.0512122511864 171.54724845290184 1686.5014251172543 196.98295339941978 621.00966864824295 47.13478210568428 113.5481786429882 2173.8762318193913 157.84694027900696 109.86039283871651 190.59877237677574 804.93748784065247 82.76341125369072 132.03834700584412 402.91185823082924 25.254836082458496 1099.4376249313354 199.96125990152359 1828.0559975206852
leaf_count=289 5447 3087 770 1579 1153 6557 873 127 407 2494 764 2098 2264 1069 3099 1391 8939 1653 868 113 317 62 1813 79 1595 240 3202 467 2734 297 964 105 170 139 7186 265 2048 635 1094 117 1196 1809 208 3631 360 3732 382 1355 91 262 4701 305 218 443 1729 199 265 848 56 2587 433 3959
internal_value=-9.0717e-06 -0.000362217 0.0036859 -0.00124024 -0.000821012 -0.000133709 0.000368567 0.0147933 0.00204672 0.00143005 8.23822e-05 -0.00541051 0.00124948 -0.00324291 0.00260589 0.0178765 0.00191496 0.00326903 -0.000939792 0.0197847 0.00374994 0.01033 -0.000889497 0.00707644 0.00809064 -0.00428261 -0.00389212 -0.00562495 -0.00630069 0.00384056 0.000510129 -0.0109705 0.00629499 -0.0100594 -0.00278763 -0.00259592 0.000131585 -0.00625605 -0.00970451 -0.00519526 0.000586573 0.00356445 0.000396068 0.00255902 0.00164258 -0.000814731 -0.00676195 -0.000194821 -0.00220324 0.00193721 -0.00022232 0.00856702 -0.00249261 -0.00017689 0.00655636 -0.00693948 0.000994754 0.00635758 -0.019025 -0.00214546 -0.00873138 -0.00682611
internal_weight=45534.8 44476 7925.28 36550.7 34001.9 28371.9 25907 1058.81 6359.53 19388.7 4575.47 2464.83 4042.39 1444.64 12724.8 916.008 11222.8 7612.92 3609.85 851.839 2597.74 1565.75 3313.73 1784.06 1690.45 5629.97 5487.46 3929.37 3714.84 890.5 668.009 93.6133 583.187 209.613 6518.34 2565.01 1470.23 1094.78 861.457 514.695 1573.47 1009.26 3192.61 1992.46 1882.6 6663.89 626.542 6037.35 3109.73 2927.62 2488.72 314.842 156.995 2009.14 918.486 209.335 1818.54 516.509 142.515 1577.98 533.087 2548.84
internal_count=97339 95419 16937 78482 72944 60798 54960 1920 13788 41217 10202 5838 9005 3220 26861 1631 23762 16201 7561 1504 5785 3149 7262 3586 3402 12146 11850 8648 8181 1807 1400 184 1239 436 13743 5609 3161 2448 1981 1211 3521 2325 6693 4199 3991 14356 1255 13101 6670 6431 5315 614 309 4440 1991 516 3997 1113 296 3740 1197 5538
is_linear=0
shrinkage=0.02


Tree=6
num_leaves=63
num_cat=0
split_feature=80 13 17 30 142 120 134 6 171 25 16 18 18 13 25 170 142 18 121 13 18 135 18 3 24 162 13 104 12 12 18 25 112 21 165 24 80 143 112 21 171 80 24 142 80 24 171 81 101 142 36 81 101 21 170 151 18 6 40 21 171 14
split_gain=572.35 379.676 224.975 232.107 207.979 193.536 155.863 145.519 130.865 232.138 117.399 113.375 111.32 107.567 131.559 103.292 111.398 115.211 119.03 102.854 101.615 99.6503 99.2352 97.8168 97.81 118.856 87.7811 98.3586 97.2918 86.5612 84.667 82.5954 129.936 80.8872 79.7849 77.3624 75.5159 74.2106 73.6179 73.5344 73.2156 73.8823 71.9514 71.0122 69.9064 68.3998 174.029 68.3864 67.8944 70.8768 67.7935 67.2465 65.1471 64.2535 73.6307 63.8198 63.8027 75.1206 62.5587 61.8322 61.1784 83.4623
threshold=-0.024113775230944153 3614.5000000000005 0.45360715687274938 0.017392619512975219 0.019140258431434635 1.0000000180025095e-35 0.5634920895099641 -0.21539124101400373 0.079847451299428954 2.5000000000000004 -5608358399.999999 0.99999853968620311 0.99999991059303295 1786.5000000000002 2.5000000000000004 0.023831796832382682 0.045664520934224136 0.99999657273292553 0.095454547554254546 675.50000000000011 1.0000013709068301 1.0000000180025095e-35 0.99999991059303295 0.013811616227030756 9.5000000000000018 0.52777779102325451 1934.5000000000002 0.10555555671453477 0.5915622115135194 1.3011273741722109 0.9999997913837434 1.5000000000000002 0.073676519095897688 5.8779434766620404e-05 0.23611111193895343 6.5000000000000009 -0.01343477889895439 0.03547745198011399 0.12296954542398454 0.0060262393672019252 0.022375540807843212 -0.0060161477886140338 10.500000000000002 -0.0043675776105374089 0.0037307310849428181 11.500000000000002 0.077954508364200606 0.098951507359743132 0.010597871616482736 -0.013113619759678839 -18763250687.999996 0.090176802128553404 0.035021187737584121 1.0000000180025095e-35 0.088370885699987425 0.19375000149011615 0.99999871850013744 -0.03973866626620292 10375340032.000002 1.0000000180025095e-35 0.072374675422906889 6973201408.000001
decision_type=2 2 2 2 2 2 2 2 2 2 2 2 2 2 2 2 2 2 2 2 2 2 2 2 2 2 2 2 2 2 2 2 2 2 2 2 2 2 2 2 2 2 2 2 2 2 2 2 2 2 2 2 2 2 2 2 2 2 2 2 2 2
left_child=6 2 3 12 8 19 -1 11 9 33 -9 -7 29 14 15 20 17 18 -17 -5 34 -8 51 44 25 48 28 -28 -14 31 42 -2 -33 -3 -12 -6 -10 -35 -23 40 -4 -42 -18 -16 -11 55 -47 -24 -15 -50 -27 52 -19 54 -34 -37 57 -45 -36 -21 -26 -62
right_child=1 4 39 5 35 7 21 10 36 23 13 -13 26 24 43 16 30 22 -20 59 -22 38 47 -25 60 50 27 -29 -30 -31 -32 32 53 37 58 45 -38 -39 -40 -41 41 -43 -44 56 -46 46 -48 -49 49 -51 -52 -53 -54 -55 -56 -57 -58 -59 -60 -61 61 -63
leaf_value=-0.0048202226099559311 0.0064224029863887431 -0.0032486043426684396 -0.02183392575291301 -0.011284504346006736 0.01412683612883422 0.015090674829086411 -0.0096161604154491095 -0.0029606339660969597 0.015693330676021962 0.013647647379218855 -0.001890981023376872 -0.014136899375270254 -0.001108051474283331 0.0045892855098693605 0.0022640100692735326 0.0048497301921856511 0.0081011148082906458 0.0097435184924238392 -0.015788736931929052 -0.0011080996791832177 0.023606882116557943 0.020974163490679761 0.0021928699923940732 -0.00073079112636847065 -0.0024405367361641874 -0.006410993277799878 -0.0050386603007313369 0.0057946286675091153 -0.012619483744823398 0.007009280895257433 -0.012827431055413176 -0.0012539782527605076 -0.015103962790472781 0.0016199374281667075 0.0029613818294356616 0.0060309179529345752 0.0038906455572157955 -0.016691575113562337 0.000598483452163277 -0.016471798494111966 0.0049689912993147239 -0.0066879797670657418 -0.021615360665508638 -0.022184099837629791 0.0012336063701229962 -0.014165533003437192 0.023245999710757071 0.029280399553810312 -0.028584511972882486 -0.0019157663853529906 0.010750854972025404 -0.014499168974288426 0.022123501280147111 0.0094804887614152473 0.012591876631048868 -0.006700215451101668 -0.015996152605586754 0.0023601495989625729 -0.0084079849751578194 -0.0079426236461515448 0.0047142151370049463 -0.012168293656294999
leaf_weight=142.85151779651642 394.35354393720627 1158.1170419901609 107.56618057191372 638.4311520755291 738.52784135937691 59.337776243686676 49.584668472409248 2473.8430296480656 238.26692008972168 524.60135062038898 4868.3973586559296 396.21099156141281 398.69181221723557 1189.5993036329746 245.42818689346313 266.23198094964027 211.33789086341858 1077.2746685147285 189.49069622159004 2587.677301466465 69.713579341769218 786.29189173877239 1193.5342108905315 732.87826412916183 1150.5288129150867 95.88689911365509 2971.4421162456274 375.72320319712162 1125.0067968964577 458.28874111175537 251.48365211486816 2601.4767468571663 548.86304922401905 111.90811786055565 2910.6112816780806 980.61564537882805 2283.0028910636902 407.79849269986153 78.400980830192566 312.962312027812 253.9709535241127 1444.5369851887226 36.350572347640991 62.352171689271927 278.50783985853195 62.307671248912811 220.64323130249977 36.439504623413086 42.968015015125275 351.93757525086403 1634.3621605634689 38.421581774950027 203.11850866675377 52.880525723099709 39.534603118896484 185.46209874749184 353.93666195869446 218.41981863975525 205.20708751678467 664.58524698019028 1618.6764058470726 124.1457000374794
leaf_count=289 772 2578 213 1387 1472 102 96 5447 435 1216 10524 748 859 2504 517 600 406 2198 408 5695 150 1383 2422 1624 2589 205 6308 747 2355 934 525 5642 1113 272 6432 2064 4802 969 152 737 511 3314 78 141 626 130 402 67 83 735 3312 83 386 117 82 347 779 466 469 1634 3410 276
internal_value=-8.91563e-06 -0.000355022 -0.00121547 -0.000825863 0.00361345 0.00014841 0.0145207 0.000889049 0.00161004 -0.00106482 0.00113087 -0.010268 -0.00359284 0.00167419 0.000600378 0.0011687 0.00403425 0.0054883 -0.00375391 -0.00395595 -7.80914e-05 0.0175527 0.00714419 0.00454829 0.00382401 0.00616866 -0.00563588 -0.00381859 -0.00961512 -0.00116045 -0.0046957 -0.00219431 -0.00324686 -0.00620518 -0.0002914 0.00885768 0.0050193 -0.0127484 0.0191358 -0.00753744 -0.00597053 -0.00493862 0.00357947 -0.00684351 0.00936087 0.0061537 0.0149465 0.00304609 0.00220377 -0.004959 0.00979061 0.0109529 0.0117423 -0.0112958 -0.0131977 0.00399436 -0.0103685 -0.00319808 0.00220622 -0.00251003 0.00113413 0.00349631
internal_weight=45531 44473.9 36551.2 34432.2 7922.64 25465.9 1057.13 21575.2 5735.08 3213.81 21119.7 455.549 8966.26 18645.9 12437.7 11557.6 3503.68 3004.51 455.723 3890.69 8053.93 914.278 2548.79 1535.99 6208.1 3314.75 4870.86 3347.17 1523.7 4095.4 499.172 3637.11 3242.75 1677.82 7984.22 2187.56 2521.27 519.707 864.693 2119.04 1806.07 1698.51 247.688 880.137 803.109 1449.03 282.951 1229.97 1584.5 394.906 1730.25 1318.81 1280.39 641.278 588.398 1166.08 634.709 280.772 3115.82 3252.26 2893.35 1742.82
internal_count=97339 95419 78482 73707 16937 54778 1920 46062 12522 7285 45212 850 18929 39765 26651 24748 7173 6164 1008 8716 17575 1631 5156 3466 13114 6839 10269 7055 3214 8660 1009 7726 6954 3819 17425 4415 5237 1241 1535 4775 4038 3825 484 1903 1842 2943 532 2489 3322 818 3517 2667 2584 1312 1195 2411 1386 607 6901 7329 6275 3686
is_linear=0
shrinkage=0.02


Tree=7
num_leaves=63
num_cat=0
split_feature=84 13 24 29 145 16 142 81 30 13 171 24 142 25 24 81 111 24 101 38 111 101 171 170 73 112 112 171 16 142 143 171 111 25 4 171 134 140 12 170 18 24 18 171 40 165 170 170 144 142 171 38 169 101 12 45 176 16 27 101 101 111
split_gain=402.092 366.611 206.867 202.097 197.234 184.761 184.183 150.824 177.338 140.205 123.07 179.865 146.518 118.153 113.659 170.645 110.453 262.856 142.607 110.289 94.8563 94.7423 94.2613 92.2443 88.1824 96.4926 84.6732 84.5787 81.7001 80.8937 80.9066 92.5708 80.9946 79.324 76.7459 75.9776 75.8117 71.6029 71.5532 70.7629 70.5701 68.0688 67.6087 67.5206 66.8063 66.5186 65.1028 59.7631 62.5223 80.7722 59.6699 58.9721 63.8671 58.011 56.9507 54.196 53.7821 53.7439 54.6569 53.5799 52.0387 125.984
threshold=0.20526316016912463 3614.5000000000005 12.500000000000002 0.92893216013908397 0.31009615957736975 -3163461759.9999995 -0.00654528266750276 0.019732023589313034 0.031830463558435447 1239.5000000000002 0.079847451299428954 7.5000000000000009 0.0019165984704159202 1.5000000000000002 10.500000000000002 0.098951507359743132 -0.0011492249905131755 9.5000000000000018 0.010597871616482736 52102500.000000007 -0.016342706978321072 0.0049789007753133782 0.055308351293206222 -0.0083349617198109609 0.18333333730697635 0.093887198716402068 0.0727830044925213 0.073649890720844283 2615376000.0000005 0.0096588991582393664 0.19913046061992648 0.094532247632741942 0.040416134521365173 1.5000000000000002 0.021853515878319744 0.022375540807843212 0.64583334326744091 0.18333333730697635 1.2046589255332949 0.060495773330330856 0.99999031424522411 10.500000000000002 0.99999931454658519 0.075457572937011733 6024040448.000001 1.0000000180025095e-35 -0.031560868024826043 -0.0019237528904341159 0.57518798112869274 0.04427240043878556 0.20034000277519229 1341131072.0000002 0.21111111342906955 0.045231219381093986 1.2517367005348208 -2.0434759790077802e-05 0.3514705896377564 35024500.000000007 0.12951612472534182 0.035852860659360893 -0.030634258873760697 -0.0068777978885918847
decision_type=2 2 2 2 2 2 2 2 2 2 2 2 2 2 2 2 2 2 2 2 2 2 2 2 2 2 2 2 2 2 2 2 2 2 2 2 2 2 2 2 2 2 2 2 2 2 2 2 2 2 2 2 2 2 2 2 2 2 2 2 2 2
left_child=1 3 4 5 55 24 14 19 13 45 11 12 -6 39 15 20 18 28 38 22 -2 44 57 -4 29 -26 54 40 47 33 31 42 -33 -1 37 -5 -35 -23 -11 53 -19 50 -31 -25 -13 -10 -17 -18 -49 -50 -8 52 -29 -9 59 -3 -47 58 -7 -15 -12 -62
right_child=6 2 23 35 10 7 41 8 9 16 60 21 -14 26 -16 46 17 27 -20 -21 -22 34 -24 43 25 -27 -28 51 -30 30 -32 32 -34 36 -36 -37 -38 -39 -40 -41 -42 -43 -44 -45 -46 56 -48 48 49 -51 -52 -53 -54 -55 -56 -57 -58 -59 -60 -61 61 -63
leaf_value=-0.015727085022245665 0.021280083229693832 0.01984439764491068 0.0089633890676958615 -0.027946803730600888 -0.014487634811926595 -0.0067645642499790781 -0.014504522397704221 0.009070517665214984 -0.0055329451519588527 8.3767269112515203e-05 0.016372417024974679 0.0089701106205197032 0.0010116120305543722 -0.0033869405989740576 0.025843554836680958 -0.023690913899282587 0.016592659717889393 0.004550963767588392 -0.011190095469081427 -0.011359005920559698 -0.00072494684968734638 -0.0028128478796156974 -0.01127738418667916 -0.018379857855800985 0.010576662059119503 -0.00960911632119648 -0.0078750597974985258 0.0058668990235919254 0.0020406284851245517 0.0036924103415731215 -0.018564002262449916 0.0060131218260209094 -0.011189445944030435 -0.0067548264372200503 -0.011733830878538434 -0.0060212812658198616 0.00070535101616218097 0.01213478719018561 0.008134793331695948 -0.014554359524653173 -0.0061203150931664722 0.0089167815994161057 -0.0060377590240852487 -0.002652743698750089 -0.0062439948247636143 0.00070386012282717459 0.0097240974454474577 0.0047165807247216071 0.012309386703778791 -0.0017349313046074312 0.01562955737580423 -0.004096682141841437 -0.010228767180703167 -0.014130676940985671 0.0053615506463459929 0.0092861078011555621 -0.004597082419863791 -0.0078585377847235922 0.0057176024802626036 0.0094099636027972205 -0.0046552052936001814 0.0069213735428144988
leaf_weight=316.83760370314121 331.39329946041107 231.35342389345169 101.05106717348099 63.075509548187256 509.2356094121933 173.27470754086971 151.28924269974232 569.5430544167757 969.52719077467918 2694.0124947428703 170.93370723724365 988.75666344165802 465.16754135489464 3327.1204441636801 318.319177120924 67.240458965301514 376.36108374595642 319.31542664766312 402.64738717675209 734.96382769942284 101.69066968560219 393.19346335530281 321.95738282799721 268.3231229186058 327.91000463068485 130.7922248840332 1374.5342588424683 1344.0189379453659 827.90011191368103 365.78894966840744 106.54476356506348 871.2591470181942 123.06251895427704 2748.8186719715595 222.16124626994133 2488.4176704883575 677.74537736177444 187.54118812084198 526.2731339931488 63.255531668663025 1081.1455356776714 143.46999144554138 1275.4481669962406 185.45280164480209 128.83718231320381 6190.1380915641785 33.469371318817139 1247.8128769993782 1424.7430474162102 183.87319803237915 29.773205757141113 384.65549719333649 104.33711075782776 44.617906212806702 368.63863813877106 1275.6631025075912 871.47728902101517 216.6404601931572 699.36650855839252 134.09210321307182 447.33471286296844 2302.952113866806
leaf_count=658 586 464 217 121 1180 394 306 1090 1967 5588 307 2231 1047 7236 551 142 750 705 841 1769 214 917 758 626 639 251 2762 2850 1744 789 225 1726 261 6224 489 5419 1539 401 1048 123 2430 287 2808 404 291 13271 66 2634 2879 377 55 842 222 86 776 2562 1987 537 1681 273 944 4772
internal_value=-8.74975e-06 -0.000315229 0.00359662 -0.00116045 0.00448954 -0.00075181 0.0115201 -2.67489e-06 0.000436996 0.00137883 0.00281585 -0.00010569 -0.00709713 -0.00259588 0.0163941 0.0106763 0.00285427 0.00427172 3.75805e-08 -0.00508677 0.0161223 0.00344319 -0.00180603 -0.00815443 -0.00366055 0.00479376 -0.00361926 1.54024e-05 0.00765834 -0.00426049 -0.00164703 -0.000947735 0.00386095 -0.00617193 -0.00179132 -0.00658662 -0.0052785 0.00203264 0.00140504 0.00524737 -0.003681 -0.00128433 -0.00386463 -0.0120003 0.007204 -0.000626501 -0.0125557 0.00909373 0.00809327 0.010701 -0.00940272 0.00284256 0.00469161 0.00733613 -0.00208747 0.0109338 4.7955e-05 0.00100566 0.00322424 -0.0028847 0.0057105 0.00503485
internal_weight=45526.5 44349.9 7877.96 36471.9 7323.13 33920.5 1176.65 26976.2 24830 18948.2 5816.11 2894.89 974.403 5881.8 852.113 533.794 10917.1 7294.16 3622.93 2146.2 433.084 1920.49 1411.24 554.827 6944.21 458.702 5204.39 3233.47 4060.69 6485.51 2742.1 2635.56 994.322 3743.4 802.896 2551.49 3426.56 580.735 3220.29 677.416 1400.46 324.532 1641.24 453.776 1117.59 8031.14 100.71 3232.79 2856.43 1608.62 181.062 1833.01 1448.36 614.161 3829.85 1507.02 7061.62 1089.28 872.641 3461.21 2921.22 2750.29
internal_count=97339 95132 16852 78280 15605 72740 2207 57620 52481 40135 12579 6556 2227 12346 1559 1008 22910 15433 7477 5139 800 4329 3370 1247 15120 890 11047 7049 8384 14230 5809 5584 1987 8421 1807 5540 7763 1318 6636 1299 3135 648 3597 1030 2522 17225 208 6640 5890 3256 361 3914 3072 1176 8285 3026 15258 2612 2075 7509 6023 5716
is_linear=0
shrinkage=0.02


Tree=8
num_leaves=63
num_cat=0
split_feature=80 13 17 30 132 145 171 25 70 174 4 17 11 6 16 13 24 16 13 5 5 23 176 132 20 23 143 132 5 142 23 73 80 70 5 24 22 4 49 142 80 6 110 49 121 24 24 24 93 112 112 171 113 174 143 176 174 6 142 142 171 112
split_gain=539.141 350.71 212.666 215.76 218.376 195.595 163.815 210.336 142.902 153.489 133.542 129.158 120.621 118.856 110.039 107.862 89.7168 89.5958 84.707 80.6394 80.2174 104.833 98.3456 85.2079 79.9055 74.3956 72.0564 174.242 87.7646 76.628 73.8499 76.8205 67.9495 66.805 66.1695 65.8966 74.7329 67.6227 60.714 60.6168 60.3146 63.7359 77.5899 60.2126 59.5104 57.8044 57.4023 56.62 63.1483 60.8765 55.8439 55.5591 54.7884 55.7481 53.8059 67.9622 53.6078 52.9932 55.7712 59.2785 52.6865 59.4064
threshold=-0.024113775230944153 3614.5000000000005 0.45360715687274938 0.017392619512975219 0.028968766331672672 0.31009615957736975 0.079847451299428954 2.5000000000000004 0.13468296080827716 1.0000000180025095e-35 0.018745203502476219 0.0019489946425892415 9.135290747508408e-05 -0.17430801689624784 -3035926527.9999995 2070.5000000000005 13.500000000000002 11901583872.000002 1087.5000000000002 0.010463367216289045 0.035560082644224174 -0.12728966027498242 0.14642857760190967 0.09803438559174539 1605000.0000000002 0.36595502495765692 0.063574120402336134 0.079877473413944258 0.026067707687616352 -0.013539390172809361 0.36595502495765692 0.15476191043853763 -1.0000000180025095e-35 0.074629135429859175 0.027987512759864334 9.5000000000000018 65.649360656738295 0.025443689897656444 -0.056200271472334855 -0.012334496714174746 -0.014650501310825346 0.19438707083463672 1.0000000180025095e-35 0.086470939218997969 0.24264705926179889 6.5000000000000009 2.5000000000000004 4.5000000000000009 0.093033924698829665 0.069128964096307768 0.1197434924542904 0.033026322722435004 0.46410256624221807 0.10263158008456232 0.039846990257501609 0.29705883562564855 0.095454547554254546 0.18929630517959598 0.011804816778749229 0.020893308334052566 0.17661950737237933 0.086294353008270278
decision_type=2 2 2 2 2 2 2 2 2 2 2 2 2 2 2 2 2 2 2 2 2 2 2 2 2 2 2 2 2 2 2 2 2 2 2 2 2 2 2 2 2 2 2 2 2 2 2 2 2 2 2 2 2 2 2 2 2 2 2 2 2 2
left_child=8 2 3 15 11 16 7 -7 9 -1 32 -5 13 34 43 60 -3 26 -14 -4 21 39 23 56 44 -11 29 35 -29 45 31 -30 -9 -32 -6 36 -28 -37 -33 -17 -8 42 52 -15 -22 -16 -21 -44 49 -49 -50 -20 -42 -54 -24 -56 -23 58 -31 -60 -2 -62
right_child=1 5 19 4 12 6 40 10 -10 25 -12 -13 18 14 17 20 -18 -19 51 46 24 22 54 -25 -26 -27 27 28 30 57 33 38 -34 -35 -36 37 -38 -39 -40 -41 41 -43 47 -45 -46 -47 -48 48 50 -51 -52 -53 53 -55 55 -57 -58 -59 59 -61 61 -63
leaf_value=-0.0062089323118953866 -0.0056892907848803331 0.01045592586155504 -0.017277922106603321 0.0015335751683687318 0.0074825582188827325 -0.0062091021391761292 0.015502214746765225 0.015740976730139074 -0.017662560242434084 0.020703347945245004 -0.0041317182420222533 -0.0077268401918900234 -0.00078440698678138672 -0.0012506002493393811 -0.018000896208285974 -0.027282140167104615 -0.02508161825062798 -0.0053431881202759381 -0.011873656146555866 -0.01197784608663595 0.0032707701009470121 0.0030735115748717775 0.0043595962300435713 -0.0091563509690455441 0.019694767057043695 0.0028925775243125048 0.0055825789596853784 -0.0045884608146947352 0.0011516952869402674 0.0015887882589264695 0.001690269044356826 -0.00040512920239896673 0.0046551865576508625 -0.015417040003879379 -0.0096584384758744268 0.0054002947365473074 0.013224631195662813 -0.0030363357978598527 0.014102883336691708 -0.0082458137615146077 -8.5209818789291105e-05 0.012056846096791942 0.0089436013565025538 -0.0076317046131236478 -0.013250545948276593 -0.0019890018525448327 -0.0037523937679852229 0.0012930593838577397 0.01204794365734835 -0.010318851242488419 -0.015951587147510309 0.0074144304399629338 0.006350285168759442 0.017832210528179779 -0.0024591180967227385 -0.0095094351300921941 0.014268171058820008 0.011823487973654394 -0.0053851341176571702 0.0021176746533350778 0.0043612850286420838 -0.023265424256061321
leaf_weight=111.33745419979095 3207.7792071998119 1535.223083794117 280.66210532188416 850.49563644826412 101.99440348148346 1661.7321723103523 207.99649810791016 330.00302290916443 51.955293655395508 783.08455848693848 521.20246514678001 2052.7266225814819 815.66003775596619 2800.010452747345 154.28973346948624 76.676118195056915 26.939110457897186 768.28792521357536 59.604251831769943 449.67712405323982 779.46148027479649 602.40351319313049 308.35402989387512 170.13993120193481 105.61002300679684 107.832151055336 1844.5686194300652 1226.3293018937111 1744.6921992748976 4112.6117603331804 189.73525094985962 164.04052963852882 675.18086293339729 172.54614973068237 676.42577612400055 1165.4540527462959 711.98625761270523 561.09884023666382 381.26171307265759 484.83180660009384 389.11175368726254 376.91456604003906 199.82989601790905 749.03643226623535 96.026659369468689 215.81077235937119 1389.2695862948895 310.8019115626812 163.86472472548485 425.64716118574142 32.376783013343811 1976.0286023914814 848.4573972672224 211.63706706464291 1967.1590594351292 757.97664949297905 238.56515896320343 162.05437484383583 1142.2369913458824 664.17375606298447 39.251891195774078 133.7665051817894
leaf_count=227 6787 3087 659 2005 203 3780 380 770 109 1373 1146 4816 1765 6111 302 126 62 1691 119 982 1571 1248 705 348 221 211 3741 2625 3551 9209 397 327 1542 366 1285 2499 1421 1171 743 1017 841 739 413 1649 193 428 3134 654 318 913 62 4090 1814 416 4196 1702 464 334 2550 1380 83 268
internal_value=-8.59264e-06 -0.000344104 -0.00117085 -0.000791986 0.000147504 0.0034716 0.00191074 -0.0012883 0.0141131 0.0157986 0.00406723 -0.00501331 0.000812219 0.000255567 0.00057104 -0.00345938 0.0098079 0.0013037 0.00465558 -0.00731656 -0.00175116 -0.00285758 -0.00172952 0.0036652 0.00343438 0.0185624 0.00165415 0.00290253 -0.000167517 7.37371e-05 0.00187699 0.00320638 0.00832264 -0.00648544 -0.00739263 0.00568237 0.00772111 0.00265589 0.00974452 -0.0109406 0.0051315 0.00439098 0.00326167 -0.00260202 0.00142739 -0.00873502 -0.0057769 -0.00065718 -0.00273376 -0.00542236 0.00728636 0.00683609 0.00632358 0.00867577 -0.00353025 -0.00442715 0.00628039 0.000613251 0.000301684 -0.00262491 -0.00627858 -0.0169893
internal_weight=45521.9 44467.7 36550.8 34431.2 25463.2 7916.92 6354.76 3188.12 1054.21 1002.25 1526.39 2903.22 22559.9 19708.6 18930.2 8968 1562.16 15381.2 2851.29 2119.61 5587.2 4606.11 4044.6 1011.11 981.098 890.917 14612.9 8161.71 3878.61 6451.18 2652.28 2289.99 1005.18 362.281 778.42 4283.11 2556.55 1726.55 545.302 561.508 3166.64 2958.64 2581.73 3549.05 875.488 370.101 1838.95 1132.52 932.691 736.449 196.242 2035.63 1449.21 1060.09 3033.49 2725.14 840.969 6081.08 5919.02 1806.41 3380.8 173.018
internal_count=97339 95419 78482 73707 54778 16937 13788 7238 1920 1811 3458 6821 47957 41983 40495 18929 3149 32735 5974 4775 11791 9806 8663 2060 1985 1584 31044 16841 8009 14203 5384 4621 2312 763 1488 8832 5162 3670 1070 1143 6550 6170 5431 7760 1764 730 4116 2360 1947 1567 380 4209 3071 2230 6603 5898 1712 13473 13139 3930 7138 351
is_linear=0
shrinkage=0.02


Tree=9
num_leaves=63
num_cat=0
split_feature=80 13 17 30 145 120 171 25 134 170 48 151 24 13 171 18 111 174 3 13 111 111 151 18 17 24 25 143 18 121 18 170 13 143 13 104 13 165 101 5 174 25 111 5 18 16 111 171 135 164 169 81 17 170 5 18 24 13 111 111 24 80
split_gain=518.804 336.968 204.24 207.214 188.06 178.624 157.433 202.017 144.999 114.244 147.733 118.009 111.345 105.611 112.865 105.589 100.909 99.3649 98.7635 97.6983 89.4221 89.1874 111.087 87.4705 90.5537 86.3842 85.7324 112.549 88.8887 144.575 91.4404 83.3871 82.8654 115.062 81.4789 92.2226 79.9072 79.897 78.7835 77.4641 75.8831 75.7184 75.5659 74.4472 73.7578 73.2878 72.9333 75.8555 73.5704 72.1241 66.3092 63.4292 61.5472 60.6501 87.6305 66.5005 62.0995 109.091 66.3734 76.0858 59.6695 59.5162
threshold=-0.024113775230944153 3614.5000000000005 0.45360715687274938 0.017392619512975219 0.31009615957736975 1.0000000180025095e-35 0.079847451299428954 2.5000000000000004 0.5634920895099641 0.023831796832382682 0.035155100747942931 0.30384616553783422 1.0000000180025095e-35 1786.5000000000002 0.07204714417457582 0.99999991059303295 0.042190313339233405 1.0000000180025095e-35 0.012023291084915401 675.50000000000011 -0.010801055468618868 0.026152210310101513 0.18465909361839297 0.99999877810478222 3.0814742785878486e-05 13.500000000000002 2.5000000000000004 0.078225865960121169 0.99999859929084789 0.095454547554254546 0.99999991059303295 0.062396332621574409 1207.5000000000002 0.062478406354784972 1934.5000000000002 0.10555555671453477 734.50000000000011 0.38750000298023229 0.016867584548890594 0.010463367216289045 0.057189542800188072 1.5000000000000002 0.0057928762398660192 0.056404015049338348 0.99999943375587474 -4644838143.999999 0.040416134521365173 0.079194393008947386 1.0000000180025095e-35 0.15476191043853763 0.29285715520381933 0.034422760829329498 0.023751397617161277 0.044044323265552528 0.016107955016195778 0.99999985098838817 10.500000000000002 1586.5000000000002 0.028670080006122593 0.013456969056278469 11.500000000000002 0.0043067447841167459
decision_type=2 2 2 2 2 2 2 2 2 2 2 2 2 2 2 2 2 2 2 2 2 2 2 2 2 2 2 2 2 2 2 2 2 2 2 2 2 2 2 2 2 2 2 2 2 2 2 2 2 2 2 2 2 2 2 2 2 2 2 2 2 2
left_child=8 2 3 15 25 19 7 -6 -1 10 13 12 21 23 60 41 26 -10 -9 -5 38 22 -11 51 -25 -3 28 44 29 -14 53 -23 -32 -34 36 46 -17 49 -16 -4 -12 45 -41 -19 -28 -2 47 -36 -49 52 -43 -7 -26 54 55 -30 58 -58 59 -56 -15 -24
right_child=1 4 39 5 6 9 -8 18 17 11 40 -13 16 14 20 34 -18 43 -20 -21 -22 31 61 24 37 -27 27 -29 30 -31 32 -33 33 -35 35 -37 -38 -39 -40 42 -42 50 -44 -45 -46 -47 -48 48 -50 -51 -52 -53 -54 -55 56 -57 57 -59 -60 -61 -62 -63
leaf_value=-0.0047945911193350444 -0.0061278060654051314 0.010256501783987808 -0.016932531252137065 -0.010938192834304875 -0.0060836951889635471 0.0064926740105162566 0.0050318285530817058 0.0097532651925910634 -0.0069437995678249542 0.011968253639564259 -0.0022568927748787657 -0.019088307559909767 0.0051289838449087247 0.0013093303076659674 0.00090072696338883943 0.0012266128178161156 -0.0078645438878303907 0.020146446044081116 -0.00049107881288531878 -0.0023886282516249364 0.0076367552348889332 0.030519096663087813 0.0077579778377629494 0.0040946430994687859 -0.0018471804195492629 -0.024610831542597623 0.011608737731915097 -0.01691072610389199 0.026033516892432475 -0.013838086448290082 -0.0030634597652246993 0.0062410445631697585 -0.0052490551299120966 0.00833528967920809 -0.0081335959832117277 0.0056820200028278789 -0.01121327180790275 0.0027122167513801147 -0.026056818334886298 -0.0027579743264398745 -0.0098095552048658424 -0.0013899154432304725 -0.01133771477008241 -0.0041726926907092463 -0.0089209286182955049 0.01163142023234069 -0.01973770247066528 0.0018763218170910192 -0.0066057725519722641 0.00029758600546423629 -0.014265860490869675 -0.00032713120073222309 -0.0076819099215937325 0.013670708127208678 0.0063561842211187162 -0.0029609704877345102 0.017940752478517119 -0.0049119662430713923 0.017467031903386342 -0.0086385160420477721 -0.0075103099168817482 -0.02767445457960642
leaf_weight=142.75660729408264 127.48779773712158 1533.825080871582 280.70018529891968 638.78785267472267 1662.1047429144382 1039.5606284737587 3165.2472819685936 666.48192968964577 64.182748883962631 228.86616456508636 1974.4765789806843 91.54046967625618 394.19540746510029 1459.1145825535059 487.36158430576324 245.0120687186718 339.07439613342285 792.51373872160912 859.39295709133148 3252.7366809844971 2200.3850964903831 146.74398791790009 27.947411209344864 901.71610376238823 1159.1331483721733 26.944925546646118 166.63962830603123 183.09449532628059 129.68260243535042 268.31117102503777 704.89601728320122 93.959272027015686 319.27108155190945 1113.2527189701796 1141.7228231877089 375.56401698291302 1279.4810923337936 880.44507269561291 45.465442478656769 1219.4227267205715 728.38699147105217 3474.9393835365772 619.82850542664528 52.687911570072174 117.49289411306381 328.0269001275301 123.57682919502258 1033.6228408664465 673.62003807723522 1184.5870331972837 165.76239442825317 1142.6251285076141 1936.4929821491241 629.63537883758545 226.12281638383865 40.719654083251953 242.63547474145889 125.3244334757328 73.185181796550751 330.37395828962326 386.2323921173811 51.2490014731884
leaf_count=289 256 3087 659 1387 3780 2309 6550 1542 127 470 4382 177 875 3268 978 529 698 1397 1916 7329 4562 272 51 1903 2491 62 335 393 254 568 1447 192 676 2213 2602 747 2685 1987 89 2684 1492 7439 1432 107 255 636 241 2118 1347 2505 329 2477 4366 1221 460 91 520 263 137 714 871 100
internal_value=-8.44654e-06 -0.00033728 -0.00114755 -0.00077623 0.00340373 0.000144538 0.00187343 -0.00126241 0.0138582 0.000856295 -5.17046e-05 0.00318861 0.00353835 0.000843865 0.00327886 -0.0033901 0.00266319 0.0167965 0.00398769 -0.00379797 0.00585764 0.0121076 0.00491224 -0.000508374 -0.00174469 0.00961995 0.00337169 -0.00477111 0.00420186 -0.00256483 0.00534291 0.021185 0.00254065 0.00530146 -0.00537938 -0.00362864 -0.00921197 -0.00276701 -0.00148234 -0.00716976 -0.00429945 -0.00102137 -0.0056608 0.0186179 0.0031005 0.00664558 -0.00480946 -0.00414692 -0.00147202 -0.00389582 -0.00198491 0.0029228 -0.00550099 0.00866603 0.00594611 0.0191194 0.00365764 0.0101602 -0.000156363 -0.00253712 -0.000540621 -0.0152183
internal_weight=45516.6 44464.5 36550.5 34430.5 7914 25461.7 6353.23 3187.98 1052.14 21570.2 15526 6044.21 5952.67 12823.1 4578.56 8968.82 5403.91 909.384 1525.87 3891.52 2733.21 548.766 308.063 8244.56 6062.37 1560.77 5064.83 467.227 4597.61 662.507 3935.1 240.703 2137.42 1432.52 4872.6 3348.11 1524.49 5160.66 532.827 2119.95 2702.86 4096.22 1839.25 845.202 284.133 455.515 2972.54 2848.97 1707.24 4280.21 3640.7 2182.19 3095.63 1797.68 1168.04 170.402 997.642 367.96 629.682 556.497 1845.35 79.1964
internal_count=97339 95419 78482 73707 16937 54778 13788 7238 1920 46062 33680 12382 12205 27806 9768 18929 11120 1631 3458 8716 5629 1085 621 18038 13252 3149 10422 983 9439 1443 7996 464 4336 2889 10269 7055 3214 11349 1067 4775 5874 8660 4116 1504 590 892 6308 6067 3465 9362 7768 4786 6857 3660 2439 345 2094 783 1311 1174 4139 151
is_linear=0
shrinkage=0.02


Tree=10
num_leaves=63
num_cat=0
split_feature=80 13 16 16 132 142 17 70 6 174 25 174 12 111 132 143 111 24 73 24 101 142 174 24 111 17 3 80 13 118 80 111 25 80 111 101 142 80 79 165 118 85 51 172 58 121 25 24 111 51 132 24 24 174 6 84 80 24 24 6 70 16
split_gain=509.37 306.904 209.816 234.346 192.639 178.808 173.463 163.752 146.014 137.35 149.155 128.804 109.445 97.379 91.2759 161.738 133.292 149.666 118.167 92.8763 88.5972 84.3483 79.5161 78.3506 77.6841 76.0396 75.474 78.6561 70.2535 68.7556 73.3725 67.7163 67.1755 67.1553 112.243 90.7004 88.706 82.2687 67.0284 67.354 66.8256 66.1306 65.9125 69.1357 64.8579 69.7746 64.5947 64.3911 74.8744 64.1875 61.551 59.8245 99.545 73.6071 73.8801 57.7995 61.4772 76.8875 57.0023 94.602 72.4484 60.8303
threshold=-0.024113775230944153 3647.5000000000005 18307117056.000004 -3163461759.9999995 0.02626824472099543 0.019140258431434635 1.0000000180025095e-35 0.11809753626585008 -0.20432437211275098 0.057189542800188072 2.5000000000000004 1.0000000180025095e-35 1.2046589255332949 0.044473383575677879 0.089666359126567854 0.064173255115747466 -0.0030481580179184671 9.5000000000000018 0.18333333730697635 8.5000000000000018 0.014675655867904426 0.011462347116321327 0.064583335071802153 6.5000000000000009 0.032759495079517371 0.093696527183055892 0.012342120520770552 0.003274079412221909 1066.5000000000002 0.26969698071479803 0.020927070640027527 0.0061916825361549863 1.5000000000000002 0.016764598898589615 0.0063220602460205564 -0.0066431704908609382 0.050323892384767539 0.0026456264313310389 1.0000000180025095e-35 0.11805555596947671 0.14642857760190967 1.0000000180025095e-35 -0.12273006513714789 0.34166666865348821 1.0000000180025095e-35 1.0000000180025095e-35 2.5000000000000004 14.500000000000002 0.0085156578570604342 -0.033458864316344254 0.15563370287418368 11.500000000000002 10.500000000000002 1.0000000180025095e-35 0.0454443246126175 0.17914438992738727 -0.004010710632428526 1.0000000180025095e-35 5.5000000000000009 0.23501903563737872 0.04735060781240464 -115203432447.99998
decision_type=2 2 2 2 2 2 2 2 2 2 2 2 2 2 2 2 2 2 2 2 2 2 2 2 2 2 2 2 2 2 2 2 2 2 2 2 2 2 2 2 2 2 2 2 2 2 2 2 2 2 2 2 2 2 2 2 2 2 2 2 2 2
left_child=7 2 3 13 6 9 -5 11 25 10 -3 -1 14 21 15 33 20 19 -16 22 -17 38 -18 -7 -21 42 27 -12 31 30 -11 -14 -20 34 35 -10 -35 -36 39 -2 -40 -8 -6 -44 -13 -46 -31 55 -49 -28 -9 52 -25 54 -53 56 -23 -58 59 60 -59 -60
right_child=1 5 -4 4 8 23 41 50 12 29 26 44 28 -15 18 16 17 -19 32 24 -22 47 -24 51 -26 -27 49 -29 -30 46 -32 -33 -34 36 37 -37 -38 -39 40 -41 -42 -43 43 -45 45 -47 -48 48 -50 -51 -52 53 -54 -55 -56 -57 57 58 61 -61 -62 -63
leaf_value=-0.0037508431862081221 -0.011908415150224776 -0.0042388180129018004 -0.008691310815028705 0.003751089717206424 0.00011845594585353496 0.013524031546389014 -0.011480094681461177 0.0033831383300916436 -0.0031946566378356286 0.0093410096342986179 0.013282204751919829 0.021288333812204793 0.0034577864647341388 -0.018990660898469295 -0.0041327274630374219 -0.00046290521613908206 0.0038272809537111424 0.00072419733988331766 0.013363759624469205 0.017989618268912936 -0.017568935658733333 0.012397312860321618 0.011040557593535923 0.0060827583384931464 -0.011642909605515502 0.0037729670153699088 0.0099238945408823016 0.00020841819137383142 0.0056127480771536202 -0.0081640058923186307 -0.014896001270115271 -0.00906316877741805 0.00086942691873191625 0.0095306240888770981 -0.010410968127140043 0.0022299709804240943 -0.025405721574276355 -0.00250120985338658 0.0077538198644617907 -0.0051275634095799471 -0.0038853214195226607 -0.0028903503044987863 0.0043342079371139356 -0.018554658761202127 0.025687754197643492 -0.002554213250211111 0.01483119170207345 0.0087077486131105063 -0.030376098316553583 -0.002195820856302386 -0.028682879837004571 -0.024204040175585841 -0.0093444715868609834 0.021831356141624455 0.010913654310590175 -0.021179425988514699 0.013906899700387257 -0.0043974785223290748 -0.023931964208120979 0.018456728069747356 -0.02054723952515752 0.0010509766891773605
leaf_weight=114.64021509885788 745.16480098664761 2102.1651221811771 1394.1981763839722 592.89774350821972 144.94833445549011 723.45269185304642 1157.3647670447826 50.50056266784668 1770.4590362608433 1229.7634730190039 478.54415811598301 705.25311377644539 442.74172297120094 167.06873416900635 3308.96861115098 1610.9316971600056 2114.9810732156038 2408.3336446881294 225.6510379165411 424.78559449315071 128.92377379536629 154.19017192721367 861.82586517930031 972.93427455425262 36.967035084962845 164.88830795884132 214.77490800619125 299.36228090524673 2687.3538570404053 205.4052312374115 50.104098856449127 280.27905181050301 709.29711066186428 393.89083006978035 640.27104593813419 4046.1275968402624 29.307628154754639 2931.5353288650513 271.17914409935474 2778.205737143755 707.3604644536972 523.33082976937294 60.088915050029755 377.95845928788185 50.179627001285553 104.09914490580559 61.791138976812363 27.833989948034286 57.424172550439835 898.68761640787125 42.401524782180786 31.047505885362625 199.8348468542099 171.8861580491066 84.30384287238121 49.268060922622681 136.09291359782219 354.97391822934151 37.861206293106079 51.326400756835938 161.29204508662224 1583.3743991851807
leaf_count=233 1644 4716 3077 1408 265 1443 2723 100 3873 2469 1122 1240 973 357 6860 3360 4339 5173 433 851 265 316 1673 2013 79 316 468 683 5584 431 104 604 1412 813 1435 9039 52 6466 543 6318 1512 1218 110 703 89 205 119 63 126 1998 86 60 414 314 170 95 254 780 79 99 362 3322
internal_value=2.79714e-06 -0.000325027 -0.0010868 -0.00078634 4.29093e-05 0.00329828 -0.00553513 0.0136445 0.000535014 0.001386 -0.000573651 0.0160664 0.000795394 -0.00398272 0.000270291 0.00091197 0.00310459 0.00455053 -0.00235857 0.00722735 -0.00175176 -0.00362447 0.00592305 0.00814323 0.015565 -0.00816017 0.00349801 0.00826914 0.00412438 0.0064412 0.00836632 -0.00140187 0.00391133 -0.000783341 -0.00113558 0.000577569 0.00698908 -0.00392527 -0.00528319 -0.00656877 -0.000646453 -0.00881427 -0.0115449 -0.0153978 0.018718 0.00682509 -0.00275666 -0.000764005 -0.0176467 0.000152393 -0.0114928 0.00545945 0.00343885 0.0136132 0.00117518 -0.000179268 0.000253622 -0.000560229 -0.00147376 -0.00691647 -0.00951082 0.000435516
internal_weight=45542.1 44475 36750.9 35356.7 28074.1 7724.06 2273.59 1067.07 25800.5 5540.6 3993.53 974.172 25052.6 7282.62 21642.3 17398.3 7586.75 5846.89 4243.92 3438.56 1739.86 7115.55 2976.81 2183.46 461.753 747.884 1891.37 777.906 3410.37 1547.06 1279.87 723.021 934.948 9811.59 9388.39 5816.59 423.198 3571.81 4501.91 3523.37 978.54 1680.7 582.996 438.047 859.532 154.279 267.196 2613.64 85.2582 1113.46 92.9021 1460.01 1172.77 287.238 115.351 2528.38 2479.11 2324.92 2188.83 567.592 516.266 1621.24
internal_count=97451 95498 78974 75897 60027 16524 5349 1953 54678 12110 8987 1767 53284 15870 46123 37418 15740 12115 8705 6942 3625 15513 6012 4414 930 1394 4271 1805 7161 3123 2573 1577 1845 21678 20813 12912 865 7901 10017 7962 2055 3941 1078 813 1534 294 550 5496 189 2466 186 2971 2427 544 230 5307 5212 4896 4642 1241 1142 3401
is_linear=0
shrinkage=0.02


Tree=11
num_leaves=63
num_cat=0
split_feature=80 13 29 29 142 132 70 30 17 174 25 18 174 17 6 21 142 170 170 5 12 171 18 5 18 111 21 81 6 6 70 132 111 24 21 24 18 5 5 17 18 24 132 171 81 142 88 143 18 118 80 171 80 18 51 5 58 121 25 171 25 143
split_gain=490.331 294.885 195.662 193.752 171.976 165.202 157.821 155.154 145.881 131.985 143.274 125.453 124.292 114.27 110.634 107.251 93.8306 124.72 88.3441 88.342 84.271 80.605 137.848 150.47 108.524 97.4668 97.5335 88.9983 146.844 110.921 92.6629 77.3711 77.2336 85.5616 75.9557 75.4652 75.166 73.8392 73.3574 77.5853 71.7437 69.3172 86.5808 68.0042 70.2312 67.4571 78.9073 68.1878 66.9831 66.0801 70.564 65.7928 65.5084 65.1556 64.6703 64.4922 62.7039 67.3699 62.125 61.9442 73.5567 72.1478
threshold=-0.024113775230944153 3647.5000000000005 0.95854809880256664 0.18230694532394412 0.019140258431434635 0.027087192051112655 0.11809753626585008 0.031830463558435447 1.0000000180025095e-35 0.057189542800188072 2.5000000000000004 0.99999818205833446 1.0000000180025095e-35 0.41157142817974096 -0.16628485918045041 0.051780939102172859 0.045664520934224136 0.047771301120519645 0.066509135067462935 0.016618323512375358 1.3105747699737551 0.070522259920835509 0.99998834729194652 0.017688812687993053 0.99999919533729564 0.0061916825361549863 0.088122658431530013 0.059571210294961936 0.027278170920908455 0.14125341922044757 0.050123477354645736 0.089666359126567854 0.044473383575677879 5.5000000000000009 0.001879590505268425 6.5000000000000009 0.9999963939189912 0.032105756923556335 0.022819961421191696 6.4663814555387958e-05 0.9999997913837434 12.500000000000002 0.099720645695924773 0.16135921329259875 0.019480189308524135 0.0051874087657779464 0.24264705926179889 0.12287158146500589 0.99999949336051952 0.26969698071479803 0.020927070640027527 0.077638112008571639 0.024254127405583862 0.99999818205833446 -0.042982557788491242 0.046488076448440559 1.0000000180025095e-35 1.0000000180025095e-35 2.5000000000000004 0.17661950737237933 1.5000000000000002 0.056783391162753112
decision_type=2 2 2 2 2 2 2 2 2 2 2 2 2 2 2 2 2 2 2 2 2 2 2 2 2 2 2 2 2 2 2 2 2 2 2 2 2 2 2 2 2 2 2 2 2 2 2 2 2 2 2 2 2 2 2 2 2 2 2 2 2 2
left_child=6 2 3 11 9 8 12 20 -5 10 51 -2 -1 14 45 -15 17 21 -19 -12 59 24 23 31 38 26 48 29 30 43 -29 -23 33 52 -35 -6 -10 -36 -16 -40 -18 53 -43 44 -24 46 -9 -47 -26 50 -11 -3 -13 -30 -21 -46 -14 -58 -51 60 61 -7
right_child=1 4 -4 5 35 7 -8 13 36 49 19 32 56 15 16 -17 40 18 -20 54 -22 22 27 -25 25 -27 -28 28 41 -31 -32 -33 -34 34 37 -37 -38 -39 39 -41 -42 42 -44 -45 55 47 -48 -49 -50 58 -52 -53 -54 -55 -56 -57 57 -59 -60 -61 -62 -63
leaf_value=-0.003676919213372481 0.0042040514853094726 -0.0064643038001970746 -0.0079995139637095251 0.0030382630039011557 0.01327314742344617 -0.01174263260409191 -0.011272732526134177 -0.0033811392048856428 0.0010617542365627449 0.0091615324805376357 0.007757548105930984 -0.0084822801246011333 0.020930712464632153 -0.0027102345972793533 0.0062865200230393945 -0.023567168382502827 0.0016241374488218383 0.012330090499157891 -0.0059614305960371461 0.010121170619096048 0.004841611695916969 0.010478036491056546 -0.01712868562345414 -0.0076954709483685402 -0.014130043984644994 -0.0061237949453543331 -0.016505711988258939 -0.0058272731757129537 0.012712189025109583 0.012124238169757147 0.0085939560513725848 -0.016912626157095958 -0.019424873022673442 -0.00147253390072655 -0.011511540578318167 0.0053537894541878031 -0.0096479408269496882 0.018456121626231607 -0.012507425139190667 0.0032483731194168754 -0.010618489562371403 -0.01633746558669211 0.016646602409561201 0.018582604185347414 0.0042222824532043238 0.017340595719934539 -0.017933513556956653 -0.011859249483551413 0.0018098813048595655 -0.007997637063144266 -0.014596615805305033 0.0012499664226413964 0.016900700091747652 -0.009076252612249874 -0.0033498951326372856 -0.022225303805262577 0.025275408084223887 -0.0025034034116380726 0.014563026586688543 -0.012162326436509691 -0.0033415884478126961 0.007010509721825273
leaf_weight=114.65304175019264 675.70097623765469 1472.9684680700302 1556.6639758944511 670.53721994161606 722.43309485912323 95.573126956820488 92.902413845062256 473.39650863409042 314.41583988070488 1228.8265690803528 942.9265064895153 1874.3459718823433 703.01378494501114 1196.0452357679605 1477.0646577179432 105.57888208329678 361.84426274895668 739.87660840153694 121.49679893255234 172.41110518574715 601.24509239196777 343.46484553813934 61.266464799642563 874.61345720291138 107.63810431957245 1334.617779225111 128.38758361339569 225.09831494092941 57.134539037942886 791.76068499684334 826.35344648361206 44.831679612398148 141.02304184436798 3055.2247537225485 507.10062338411808 1459.1090804338455 1541.9090071022511 33.202761650085449 190.6358657181263 353.45027750730515 402.15325090289116 42.815857440233231 107.6689318716526 125.66875445842743 5508.6164492964745 90.08210301399231 216.90200841426849 47.002103924751282 2685.9819146990776 205.52556398510933 50.151232331991196 629.53667801618576 39.575290501117706 769.25690689682961 775.45088940858841 35.02651846408844 50.013357609510422 104.13163524866104 61.709236621856689 279.65774369239807 5007.2433163374662 511.17277336120605
leaf_count=233 1403 3383 3399 1592 1443 204 186 908 736 2469 2185 4077 1240 2680 3261 252 712 1444 248 372 1232 757 134 1886 226 2976 319 480 113 1570 1622 100 297 6517 1213 2971 3647 68 415 734 835 90 226 247 11494 172 403 83 6131 431 104 1333 76 1643 1714 72 89 205 119 544 10746 990
internal_value=2.7152e-06 -0.000318601 -0.0010652 -0.000757927 0.00323385 -6.30102e-05 0.0134022 0.000405599 -0.00494585 0.00135871 -0.000561975 -0.00392729 0.0157854 0.00128384 0.0016862 -0.00443903 0.00202038 0.00232968 0.00973641 0.00342964 -0.00227687 0.00193177 0.00306375 -0.0030983 0.000161183 -0.00165009 0.000394694 0.00397489 0.000313502 0.00511248 0.00549698 0.00723122 -0.00490159 -0.0045221 -0.00269949 0.00798789 -0.00783241 -0.00959848 0.00397555 -0.00229027 -0.00482535 -0.00526159 0.00713604 0.00413907 0.00380788 -0.00545215 -0.00799831 0.00726475 0.00118437 0.0063159 0.00820451 -0.00415345 -0.00793754 -0.00753671 -0.000878603 0.00404626 0.018397 0.00670008 -0.00269973 -0.00300522 -0.00254411 0.00401951
internal_weight=45536.1 44471.4 36750.3 35193.7 7721.05 28867.5 1064.71 26340.6 2526.86 5539.51 3993.29 6326.17 971.812 19845.7 18544.1 1301.62 17716.7 16952.7 861.373 1890.79 6494.89 16091.4 9813.58 1262.91 6277.78 4256.63 2922.01 8550.67 2028.33 6522.34 1051.45 388.297 5650.47 5509.45 3595.53 2181.54 1856.32 540.303 2021.15 544.086 763.998 976.876 150.485 5730.58 5604.91 827.383 690.299 137.084 2793.62 1546.21 1278.98 2102.51 1913.92 826.391 947.862 5543.64 857.159 154.145 267.235 5893.65 5613.99 606.746
internal_count=97451 95498 78974 75575 16524 61924 1953 55949 5975 12110 8987 13651 1767 42233 39301 2932 37735 36188 1692 4271 13716 34496 20434 2743 14062 9652 6676 17691 4174 13517 2102 857 12248 11951 7798 4414 4383 1281 4410 1149 1547 2072 316 11947 11700 1566 1311 255 6357 3123 2573 4716 4153 1756 2086 11566 1534 294 550 12484 11940 1194
is_linear=0
shrinkage=0.02


Tree=12
num_leaves=63
num_cat=0
split_feature=80 13 16 16 132 145 17 70 6 135 12 81 5 143 111 24 6 24 101 116 21 111 24 142 17 80 111 6 142 80 5 142 135 142 101 142 24 23 124 111 80 5 13 4 23 81 111 79 165 118 85 51 172 116 24 143 142 24 111 24 80 87
split_gain=472.077 283.333 197.377 219.676 179.367 166.005 161.044 152.078 137.015 112.73 103.801 96.6894 183.589 134.961 135.255 174.631 125.89 105.201 103.595 95.5143 95.6235 91.3956 82.8504 79.375 72.7116 72.467 112.389 92.732 85.3689 80.1588 85.6035 70.5091 77.1873 71.8678 83.5969 70.3202 68.8444 68.7715 67.4706 73.7423 95.3326 70.653 67.1856 66.7877 65.8984 65.0717 64.9462 63.7106 65.0149 63.9826 63.41 63.2287 66.4046 62.4479 62.304 62.1324 63.0621 61.8139 72.0121 61.4502 71.3789 60.2876
threshold=-0.024113775230944153 3647.5000000000005 18307117056.000004 -3163461759.9999995 0.02626824472099543 0.31009615957736975 1.0000000180025095e-35 0.11809753626585008 -0.20432437211275098 1.0000000180025095e-35 1.2046589255332949 0.059571210294961936 0.029673289507627491 0.064173255115747466 0.0013592690229415896 9.5000000000000018 0.054634587839245803 8.5000000000000018 0.014675655867904426 1.0000000180025095e-35 7.283923696377316e-05 0.044473383575677879 12.500000000000002 0.011462347116321327 0.093696527183055892 0.016764598898589615 0.0063220602460205564 -0.034668674692511552 0.050323892384767539 0.0026456264313310389 0.015174132771790029 0.0023410333087667827 0.11805555596947671 0.039591934531927116 0.015118958428502085 0.052490010857582099 6.5000000000000009 -0.072988729923963533 0.10289500281214715 -0.010801055468618868 -0.010735273361206053 0.020831141620874408 1066.5000000000002 0.04610684514045716 1.0000000180025095e-35 0.1082577519118786 0.0061916825361549863 1.0000000180025095e-35 0.11805555596947671 0.14642857760190967 1.0000000180025095e-35 -0.12273006513714789 0.34166666865348821 0.17914438992738727 14.500000000000002 0.044242806732654578 -0.010864283889532087 14.500000000000002 0.0085156578570604342 11.500000000000002 -0.0025339861167594786 0.62019231915473949
decision_type=2 2 2 2 2 2 2 2 2 2 2 2 2 2 2 2 2 2 2 2 2 2 2 2 2 2 2 2 2 2 2 2 2 2 2 2 2 2 2 2 2 2 2 2 2 2 2 2 2 2 2 2 2 2 2 2 2 2 2 2 2 2
left_child=7 2 3 21 6 22 -5 9 24 -1 11 13 59 25 18 17 31 35 44 61 37 23 -3 47 51 26 27 36 -27 -28 54 32 -14 -33 -35 53 -10 -21 39 40 -39 -41 46 -22 -15 -34 -12 48 -2 -49 -8 -6 -53 -16 -31 -43 -57 -25 -59 -13 -61 -7
right_child=1 5 -4 4 8 19 50 -9 10 -11 42 12 16 14 15 -17 -18 -19 -20 20 43 -23 -24 57 -26 28 29 -29 -30 30 -32 33 45 34 -36 -37 -38 38 -40 41 -42 55 -44 -45 -46 -47 -48 49 -50 -51 -52 52 -54 -55 -56 56 -58 58 -60 60 -62 -63
leaf_value=-0.0048690624968264935 -0.011606742380032104 0.0099366647059152251 -0.0084186177796510085 0.0036178954650153694 0.00021766860404756432 -0.0014950442724853924 -0.011100292117851237 -0.011048695341247165 -0.0082831792068057495 0.017776398172852103 0.0033768208791755266 -0.010619911395093282 -0.0076497918581586886 -0.002788887781737952 0.0077634420815385933 0.00015965725680775939 -0.00466990065324672 0.016837603552433127 -0.012235407337102065 -0.0022086421231612124 -0.0042881023603614944 -0.018385217855430264 -0.013862390247404651 -0.00015187464948983936 0.0037731924590309624 0.010145453343086162 -0.010294831166527131 0.0024204678340641918 -0.026217911350604823 0.0059844950911541097 -0.0043432854650161693 0.011195817971182871 0.007107342019060223 -0.020196511739550688 0.010194374734449918 -0.0089045280751746374 -0.00017190404891038866 0.0079965315073703587 0.013202316833813333 0.0087881108513679536 -0.013240346552604018 -0.014894333283225154 0.0054764177854449946 0.025717885350746813 0.0037899085426987109 -0.024329562925240224 -0.0088847080672221183 0.0076328238832965006 -0.0049460584337186553 -0.0037568904805234159 -0.0026907749504129419 0.0043590997162597685 -0.01806787569299852 -0.0030908877703117923 -0.012756788923409685 0.015785571968216356 0.0016786065701674996 0.0085856764006408941 -0.029738744819952236 0.022027634502404681 -0.0054016593391921974 -0.015602632724035032
leaf_weight=96.500003844499588 745.43682664632797 1493.3578774034977 1394.5950038433075 592.69201709330082 144.96244597434998 1309.0324010252953 1157.6447237432003 92.93300986289978 644.53156398236752 872.83049032092094 442.63952738046646 1088.692859262228 320.15935914218426 1209.0467724949121 2453.9577154219151 2087.7012935876846 1119.7298014163971 425.54674673080444 282.43897768855095 545.1845463514328 784.33991019427776 167.10323047637939 58.963263422250748 2528.2976319491863 164.87987920641899 370.84017035365105 633.60731881856918 3896.9928516447544 25.687756299972534 597.79131430387497 2219.1312714219093 639.48011127114296 422.10584311187267 67.901590943336487 72.895429491996765 116.66771429777145 1189.7979468107224 144.0418004989624 393.83596926927567 1324.0816807448864 198.55771766602993 77.537689566612244 2686.1360549926758 28.734014123678207 1222.6425875723362 25.986958861351013 280.36480909585953 271.1058786213398 2778.7994385063648 707.48527443408966 523.44501236081123 60.092562317848206 378.24848380684853 230.34122970700264 78.374106168746948 141.66476213932037 1087.0292165279388 27.82723830640316 57.466437116265297 48.532740712165833 149.2454569041729 131.64784047007561
leaf_count=197 1644 3001 3077 1408 265 2929 2723 186 1397 1570 973 2300 645 2488 4929 4483 2317 868 592 1150 1791 357 131 5307 316 763 1419 8725 44 1324 4877 1284 846 132 141 231 2609 282 760 2940 424 161 5584 56 2589 51 604 543 6318 1512 1218 110 703 465 185 287 2272 63 126 99 320 340
internal_value=2.62628e-06 -0.000312327 -0.00104406 -0.000752584 5.04067e-05 0.00317064 -0.00533177 0.0131658 0.000525338 0.0155113 0.000777657 0.000266293 -0.0025597 0.000898689 0.00281462 0.00466936 0.000432161 0.00758425 -0.00081616 0.00169674 0.00307143 -0.00384703 0.00901254 -0.00349995 -0.0078959 -0.000693995 -0.00105355 0.000674838 0.00765481 -0.00386056 -0.00244493 0.00412541 -0.00017234 0.0083519 -0.00450763 0.00616587 -0.00303004 0.00436871 0.00543575 0.00439726 -0.00430363 0.0055346 0.00402032 -0.00316031 0.000517627 0.00517137 -0.00138362 -0.00510875 -0.00636186 -0.000588268 -0.00849032 -0.0112043 -0.0149759 0.00682875 0.0037737 0.00222522 0.00333174 -0.000724931 -0.0172627 -0.00875923 0.00146334 -0.00280701
internal_weight=45529.3 44467.1 36749 35354.5 28070.9 7718.01 2273.78 1062.26 25797.2 969.33 25049 21639.8 3954.73 17685.1 8028.34 5314.21 2668.26 3226.51 2714.13 6165.69 4725.01 7283.52 1552.32 7116.42 748.183 9656.75 9260.23 5731.32 396.528 3528.9 2895.3 1548.53 768.252 780.277 140.797 2800.97 1834.33 3911.93 3366.75 2972.91 342.6 2630.31 3409.14 813.074 2431.69 448.093 723.004 4502.83 3524.24 978.591 1681.09 583.303 438.341 2684.3 676.165 1306.23 1228.69 2613.59 85.2937 1286.47 197.778 1440.68
internal_count=97451 95498 78974 75897 60027 16524 5349 1953 54678 1767 53284 46123 8135 37988 16645 10976 5416 6493 5669 13392 10123 15870 3132 15513 1394 21343 20536 12731 807 7805 6386 3099 1542 1557 273 5625 4006 8276 7126 6366 706 5660 7161 1847 5077 897 1577 10017 7962 2055 3941 1078 813 5394 1509 2720 2559 5496 189 2719 419 3269
is_linear=0
shrinkage=0.02


Tree=13
num_leaves=63
num_cat=0
split_feature=80 13 16 16 132 24 114 17 6 135 112 30 17 118 6 12 24 170 18 25 21 21 49 170 112 170 112 101 17 16 93 61 58 13 24 162 25 101 170 170 58 18 114 21 24 18 101 170 104 18 16 6 16 1 82 39 170 101 170 151 135 114
split_gain=454.433 272.224 189.525 210.979 172.397 161.17 156.89 141.068 130.837 124.545 113.966 107.89 121.6 101.845 97.7646 93.584 90.2235 89.5584 86.7846 81.6597 79.8042 78.474 83.4181 76.9505 76.9496 76.2735 74.6148 70.2516 69.8248 67.8823 66.4072 84.8746 76.0917 66.3657 112.597 107.101 77.7198 74.4306 87.95 70.8503 88.1916 90.0507 67.3396 65.586 65.1984 70.5911 67.8689 62.2445 62.0599 72.0496 61.8396 61.5924 60.9646 59.4439 66.718 60.5218 58.117 76.3584 58.0664 57.7622 56.9401 55.2092
threshold=-0.024113775230944153 3647.5000000000005 18307117056.000004 -3163461759.9999995 0.02544296067208052 12.500000000000002 0.3717105239629746 1.0000000180025095e-35 -0.20432437211275098 0.23611111193895343 0.1197434924542904 0.031830463558435447 0.42500859498977667 0.57518798112869274 -0.38431355357170099 1.3105747699737551 1.0000000180025095e-35 -0.0083349617198109609 0.9999963939189912 1.5000000000000002 8.5487034084508209e-05 1.0000000180025095e-35 0.11572408303618432 -0.038271222263574593 0.043975913897156722 0.0085363006219267863 0.074187316000461592 -0.020202723331749436 0.093696527183055892 -115203432447.99998 0.093033924698829665 0.019057097844779495 1.0000000180025095e-35 1786.5000000000002 9.5000000000000018 0.5634920895099641 2.5000000000000004 0.0081480033695697802 -0.022833640687167641 -0.0068951426073908797 1.0000000180025095e-35 0.97739517688751232 0.45804196596145635 0.051780939102172859 5.5000000000000009 0.99999961256980907 0.061733571812510497 -0.021921208128333088 0.23611111193895343 0.99999800324440014 2514950016.0000005 0.11337942630052568 1303901888.0000002 0.10230770707130434 0.41421568393707281 -171087503.99999997 0.062396332621574409 0.03968936204910279 -0.028466464951634404 0.15192308276891711 1.0000000180025095e-35 0.55277779698371898
decision_type=2 2 2 2 2 2 2 2 2 2 2 2 2 2 2 2 2 2 2 2 2 2 2 2 2 2 2 2 2 2 2 2 2 2 2 2 2 2 2 2 2 2 2 2 2 2 2 2 2 2 2 2 2 2 2 2 2 2 2 2 2 2
left_child=9 2 3 16 7 6 20 -5 28 14 -11 15 33 30 -1 19 25 61 -9 51 -3 22 27 -12 -16 -2 -21 -18 48 -29 31 32 -8 36 35 37 39 -35 -39 40 52 -42 -41 -14 45 -31 56 -4 49 -6 -43 -10 -13 54 -36 -56 57 -46 -38 -57 -58 -7
